image_path,dim_0,dim_1,dim_2,dim_3,dim_4,dim_5,dim_6,dim_7,dim_8,dim_9,dim_10,dim_11,dim_12,dim_13,dim_14,dim_15,dim_16,dim_17,dim_18,dim_19,dim_20,dim_21,dim_22,dim_23,dim_24,dim_25,dim_26,dim_27,dim_28,dim_29,dim_30,dim_31,dim_32,dim_33,dim_34,dim_35,dim_36,dim_37,dim_38,dim_39,dim_40,dim_41,dim_42,dim_43,dim_44,dim_45,dim_46,dim_47,dim_48,dim_49,dim_50,dim_51,dim_52,dim_53,dim_54,dim_55,dim_56,dim_57,dim_58,dim_59,dim_60,dim_61,dim_62,dim_63,dim_64,dim_65,dim_66,dim_67,dim_68,dim_69,dim_70,dim_71,dim_72,dim_73,dim_74,dim_75,dim_76,dim_77,dim_78,dim_79,dim_80,dim_81,dim_82,dim_83,dim_84,dim_85,dim_86,dim_87,dim_88,dim_89,dim_90,dim_91,dim_92,dim_93,dim_94,dim_95,dim_96,dim_97,dim_98,dim_99,dim_100,dim_101,dim_102,dim_103,dim_104,dim_105,dim_106,dim_107,dim_108,dim_109,dim_110,dim_111,dim_112,dim_113,dim_114,dim_115,dim_116,dim_117,dim_118,dim_119,dim_120,dim_121,dim_122,dim_123,dim_124,dim_125,dim_126,dim_127,dim_128,dim_129,dim_130,dim_131,dim_132,dim_133,dim_134,dim_135,dim_136,dim_137,dim_138,dim_139,dim_140,dim_141,dim_142,dim_143,dim_144,dim_145,dim_146,dim_147,dim_148,dim_149,dim_150,dim_151,dim_152,dim_153,dim_154,dim_155,dim_156,dim_157,dim_158,dim_159,dim_160,dim_161,dim_162,dim_163,dim_164,dim_165,dim_166,dim_167,dim_168,dim_169,dim_170,dim_171,dim_172,dim_173,dim_174,dim_175,dim_176,dim_177,dim_178,dim_179,dim_180,dim_181,dim_182,dim_183,dim_184,dim_185,dim_186,dim_187,dim_188,dim_189,dim_190,dim_191,dim_192,dim_193,dim_194,dim_195,dim_196,dim_197,dim_198,dim_199,dim_200,dim_201,dim_202,dim_203,dim_204,dim_205,dim_206,dim_207,dim_208,dim_209,dim_210,dim_211,dim_212,dim_213,dim_214,dim_215,dim_216,dim_217,dim_218,dim_219,dim_220,dim_221,dim_222,dim_223,dim_224,dim_225,dim_226,dim_227,dim_228,dim_229,dim_230,dim_231,dim_232,dim_233,dim_234,dim_235,dim_236,dim_237,dim_238,dim_239,dim_240,dim_241,dim_242,dim_243,dim_244,dim_245,dim_246,dim_247,dim_248,dim_249,dim_250,dim_251,dim_252,dim_253,dim_254,dim_255,dim_256,dim_257,dim_258,dim_259,dim_260,dim_261,dim_262,dim_263,dim_264,dim_265,dim_266,dim_267,dim_268,dim_269,dim_270,dim_271,dim_272,dim_273,dim_274,dim_275,dim_276,dim_277,dim_278,dim_279,dim_280,dim_281,dim_282,dim_283,dim_284,dim_285,dim_286,dim_287,dim_288,dim_289,dim_290,dim_291,dim_292,dim_293,dim_294,dim_295,dim_296,dim_297,dim_298,dim_299,dim_300,dim_301,dim_302,dim_303,dim_304,dim_305,dim_306,dim_307,dim_308,dim_309,dim_310,dim_311,dim_312,dim_313,dim_314,dim_315,dim_316,dim_317,dim_318,dim_319,dim_320,dim_321,dim_322,dim_323,dim_324,dim_325,dim_326,dim_327,dim_328,dim_329,dim_330,dim_331,dim_332,dim_333,dim_334,dim_335,dim_336,dim_337,dim_338,dim_339,dim_340,dim_341,dim_342,dim_343,dim_344,dim_345,dim_346,dim_347,dim_348,dim_349,dim_350,dim_351,dim_352,dim_353,dim_354,dim_355,dim_356,dim_357,dim_358,dim_359,dim_360,dim_361,dim_362,dim_363,dim_364,dim_365,dim_366,dim_367,dim_368,dim_369,dim_370,dim_371,dim_372,dim_373,dim_374,dim_375,dim_376,dim_377,dim_378,dim_379,dim_380,dim_381,dim_382,dim_383
dataset_test/dataset_test/coastal/coastal_989.jpg,0.05025102570652962,0.006123303901404142,0.08955246210098267,0.00690153194591403,-0.04187742993235588,0.016350032761693,-0.0010916143655776978,-0.028166988864541054,-0.08429920673370361,0.012737499549984932,-0.014212786220014095,-0.06673490256071091,0.011589044705033302,0.0823138952255249,0.031406860798597336,-0.09274136275053024,0.06991369277238846,0.06510975956916809,-0.01145185623317957,-0.019200121983885765,0.053332652896642685,-0.02141767181456089,-0.008697877638041973,-0.020674340426921844,-0.011581046506762505,0.10297942161560059,0.008363740518689156,-0.04101238399744034,0.0507044680416584,-0.03750382736325264,0.030440473929047585,-0.041846200823783875,0.10654986649751663,-0.05055791139602661,0.06245829910039902,-0.0031804798636585474,0.05991585552692413,-0.0485868863761425,-0.0032927251886576414,-0.006298902910202742,-0.06357257813215256,-0.051807187497615814,0.021326523274183273,0.06897357106208801,0.0308760367333889,-0.03826529532670975,0.07826472073793411,-0.11458435654640198,-0.046402737498283386,-0.06963904947042465,-0.019398745149374008,0.007892384193837643,-0.04224006459116936,0.0334404818713665,-0.008193165995180607,-0.03172149136662483,-0.03923773765563965,0.005595180206000805,0.09710292518138885,-0.04016079008579254,-0.026130545884370804,-0.04110801964998245,-0.04020432010293007,0.07172061502933502,-0.048790253698825836,0.10333087295293808,-0.09488687664270401,0.06801258772611618,0.053375739604234695,-0.06299415975809097,0.0130976727232337,0.04116787761449814,0.05668218806385994,0.0411885641515255,-0.02362443134188652,0.013914244249463081,0.07240864634513855,-0.10414550453424454,-0.04967604577541351,-0.05407336354255676,-0.023267602548003197,0.005952794104814529,0.013177094049751759,0.021050866693258286,-0.05769801884889603,0.03129197284579277,-0.02585911750793457,-0.027251146733760834,-0.04302223026752472,-0.055130381137132645,0.009320716373622417,-0.01106347143650055,-0.07921288907527924,-0.0572848804295063,0.040653977543115616,0.041824717074632645,-0.06266386806964874,-0.01075092051178217,0.012352091260254383,0.020071029663085938,-0.0074671795591712,-0.009344900958240032,0.10299728065729141,0.08895155787467957,0.01627076230943203,-0.07130291312932968,0.011200595647096634,0.04803039878606796,-0.0036755220498889685,0.01686856709420681,-0.05951738357543945,-0.06914088875055313,-0.09112045168876648,-0.03226304426789284,-0.02965293638408184,-0.19693869352340698,0.05751977488398552,-0.009895638562738895,0.0286675076931715,-0.026008376851677895,0.07169006019830704,-0.07936418056488037,0.0825897827744484,-0.023594539612531662,-0.09607784450054169,-0.019929489120841026,0.02095821127295494,2.783698090415844e-33,0.021925700828433037,-0.004182766191661358,-0.02382713556289673,-0.007130043115466833,0.08591371774673462,-0.034031081944704056,0.0521685853600502,0.016524577513337135,0.0013747980119660497,-0.0002989941567648202,0.04437533766031265,0.05172780901193619,-0.08647183328866959,0.11326000094413757,0.015399191528558731,0.05185174569487572,0.019322814419865608,-0.02380775287747383,0.01990162767469883,-0.013117985799908638,0.011030357331037521,0.12225476652383804,0.02453286573290825,0.1143849790096283,-0.014968682080507278,-0.0011853849282488227,-0.012310551479458809,-0.038894202560186386,-0.09480243921279907,0.009928282350301743,-0.00012634179438464344,0.05840105935931206,0.06534887850284576,0.09021379798650742,-0.09826698899269104,0.04081664979457855,-0.07486845552921295,-0.038231540471315384,0.019093269482254982,0.028417058289051056,-0.07680124044418335,0.019824136048555374,-0.012467077001929283,0.07246044278144836,0.04677344858646393,-0.023606570437550545,0.0030620768666267395,0.00991871953010559,0.043191954493522644,0.06627247482538223,0.014152881689369678,0.05048118904232979,-0.14516915380954742,-0.009290681220591068,0.0029986859299242496,-0.09567419439554214,-0.0208709929138422,0.028741860762238503,0.047341328114271164,0.023154838010668755,-0.037359338253736496,0.08450450003147125,-0.02449621446430683,0.04022799804806709,0.03869494050741196,-0.015026363544166088,-0.014141079969704151,-0.002180536510422826,0.01085460651665926,-0.029820483177900314,-0.07835543155670166,-0.0026235179975628853,-0.013730552047491074,0.04232025519013405,0.026740018278360367,-0.014949584379792213,-0.022192293778061867,-0.06898058950901031,-0.04283749312162399,0.045636244118213654,0.013258682563900948,0.0016600157832726836,-0.05327673628926277,0.08262462913990021,0.007914448156952858,0.056806981563568115,0.06265866756439209,0.0163042601197958,-0.02895050123333931,-0.06076859310269356,0.026116443797945976,0.006210652180016041,-0.026775939390063286,-0.012470751069486141,-0.03942506015300751,-4.7190477853149974e-33,0.07378903776407242,-0.026257988065481186,-0.06348717957735062,0.029477758333086967,0.007192900404334068,0.04790229722857475,-0.027616485953330994,-0.027480654418468475,-0.0018943658797070384,0.05760478600859642,0.06496020406484604,0.0004284095484763384,0.04176560789346695,-0.03201613575220108,-0.0525566041469574,0.0017596242250874639,0.10901351273059845,-0.0622824989259243,-0.03216157108545303,0.07796205580234528,0.08236509561538696,0.14077654480934143,-0.1004350557923317,0.02535352110862732,-0.04011136665940285,0.011439933441579342,0.005973107647150755,-0.03238290175795555,-0.03550619259476662,0.04770684242248535,-0.06444805860519409,0.027474071830511093,0.10423304885625839,0.01043950766324997,0.0489082857966423,-0.04328984394669533,-0.016704386100172997,-0.020723076537251472,-0.05351098254323006,-0.03498680517077446,0.008564302697777748,-0.028527481481432915,0.06506768614053726,0.07328077405691147,0.028411779552698135,-0.03487429395318031,-0.08756599575281143,0.04414355009794235,-0.02141435444355011,-0.03262857720255852,-0.02341015823185444,-0.018824182450771332,-0.05270392820239067,-0.029049919918179512,0.052427466958761215,-0.03782636672258377,-0.027516121044754982,0.04201862961053848,0.056775402277708054,0.03144998475909233,0.0248792115598917,0.0019487825920805335,0.005110381171107292,0.024738436564803123,0.034363385289907455,-0.02071545645594597,0.01086933072656393,-0.060768675059080124,-0.08096249401569366,0.014769291505217552,0.033056292682886124,-0.005442402791231871,0.040763404220342636,-0.03330523148179054,0.07457879185676575,-0.028604254126548767,0.003113791113719344,0.05238741263747215,0.005859052762389183,0.05143263563513756,-0.0018740022787824273,0.07550046592950821,0.08783949911594391,-0.013142303563654423,0.07820078730583191,-0.027043327689170837,-0.0804826021194458,0.020999634638428688,0.04347449168562889,-0.030132019892334938,0.020729416981339455,0.02881946787238121,-0.02767719142138958,0.026728389784693718,0.0513850674033165,-2.8504993920819288e-08,-0.02256874367594719,-0.0005286180530674756,0.030274659395217896,-0.06530104577541351,-0.019810086116194725,-0.06534156948328018,0.037550535053014755,0.0773916020989418,0.003094990737736225,-0.020163781940937042,0.06964001804590225,0.038921765983104706,-0.07869862765073776,0.045302871614694595,-0.03413059189915657,0.0246193278580904,-0.013807529583573341,0.0006773524801246822,-0.004332150798290968,-0.0513438954949379,-0.026755789294838905,-0.06306865066289902,0.05599677190184593,0.015410512685775757,-0.030630528926849365,-0.015004070475697517,-0.025676622986793518,-0.046377502381801605,-0.0024898555129766464,-0.008980772458016872,0.043755218386650085,-0.09429772943258286,0.022481312975287437,-0.012274492532014847,0.004105183761566877,0.08032630383968353,-0.03599373251199722,-0.011139784008264542,-0.10584594309329987,-0.11503184586763382,-0.005744017660617828,-0.2011210173368454,0.00044058531057089567,-0.0006994296563789248,0.032222140580415726,0.001071225618943572,-0.07476599514484406,0.05121082067489624,-0.04083416238427162,-0.06757432222366333,-0.02253737300634384,0.0074378629215061665,-0.036714717745780945,-0.0343533456325531,0.012964066118001938,-0.0001577098882989958,0.06744255870580673,-0.003660829970613122,0.021500220522284508,-0.007926642894744873,0.03626615181565285,0.03196373209357262,-0.09770538657903671,-0.015384514816105366
dataset_test/dataset_test/coastal/coastal_792.jpg,0.0446336604654789,0.008287524804472923,-0.05308552086353302,0.05017373338341713,0.027331994846463203,-0.011915881186723709,-0.001370807527564466,-0.016200007870793343,-0.028638431802392006,0.057082708925008774,-0.01845046505331993,-0.07079604268074036,0.031102878972887993,0.03704747557640076,0.015609562397003174,-0.005587071180343628,0.05054069310426712,0.010293739847838879,-0.03225040063261986,0.017652560025453568,0.0311012864112854,0.02049235627055168,0.07306153327226639,-0.0185514148324728,-0.02379131317138672,0.06794226169586182,-0.05427788943052292,-0.016376420855522156,0.029712717980146408,-0.046105459332466125,0.09345066547393799,-0.014196240343153477,0.07700486481189728,0.02062179520726204,0.04515853524208069,0.0042810384184122086,0.03762102127075195,-0.009355208836495876,0.01732887141406536,-0.02858438529074192,-0.07419098168611526,0.025830166414380074,0.016205454245209694,0.0876244455575943,-0.02453276515007019,-0.011831182986497879,0.04956738278269768,-0.033462461084127426,-0.0026861580554395914,-0.07363525032997131,0.06415484845638275,0.05827127769589424,-0.1011994257569313,0.09316572546958923,0.0022710682824254036,0.07299916446208954,-0.024349093437194824,-0.051874034106731415,0.0573953352868557,-0.06341090798377991,0.005830725189298391,0.006772147957235575,0.018592266365885735,0.0006499878945760429,-0.021641232073307037,0.05613524094223976,-0.09686882048845291,0.06779246032238007,-0.023155828937888145,-0.03183743730187416,0.028563037514686584,0.015654560178518295,0.019185414537787437,0.05531756952404976,0.010295999236404896,-0.006564285606145859,0.06523909419775009,-0.06339560449123383,-0.02611064352095127,-0.054594915360212326,-0.02653305046260357,0.02004379965364933,-0.015797777101397514,0.047605860978364944,-0.11894895136356354,-0.013618710450828075,-0.030398188158869743,-0.038576677441596985,-0.0658562183380127,-0.06509567052125931,0.04777330905199051,-0.029620157554745674,0.00012558672460727394,-0.05282396823167801,-0.040390495210886,0.05652761086821556,-0.022818539291620255,0.004291063640266657,0.03345838561654091,0.0017338371835649014,-0.0036829267628490925,-0.0020770260598510504,0.18967340886592865,0.07356277108192444,-0.1304934322834015,-0.11564206331968307,0.01884768344461918,0.0634215697646141,-0.020897559821605682,-0.040268220007419586,-0.05000942572951317,0.0009586297092027962,-0.12513987720012665,-0.023286504670977592,0.029303384944796562,-0.10666071623563766,0.055869489908218384,-0.0003000799042638391,0.015750376507639885,-0.011056271381676197,0.07385659962892532,-0.02738029696047306,0.062185484915971756,-0.02643623761832714,-0.05562352016568184,-0.042141225188970566,0.04601031914353371,1.4598588320781802e-33,0.042038608342409134,-0.00040870209340937436,-0.005185066256672144,0.03688063472509384,0.0543881356716156,0.002105755964294076,0.033909354358911514,0.033579323440790176,0.010768636129796505,0.053962912410497665,0.05217953026294708,0.04240753874182701,-0.10074064135551453,0.11462508141994476,0.07279395312070847,0.032807357609272,-0.031244929879903793,0.02797025814652443,0.006971093825995922,-0.04822845384478569,-0.04266854003071785,0.10754409432411194,0.054699402302503586,0.08770236372947693,0.0580848753452301,-0.01175993774086237,0.01003944966942072,-0.015601219609379768,-0.1247202455997467,-0.006321440916508436,-0.032399460673332214,0.05416037514805794,0.0239667147397995,0.0198017880320549,-0.05630560219287872,0.04779928922653198,-0.07497411221265793,-0.045810095965862274,0.04340250417590141,-0.05312885716557503,-0.07424954324960709,0.03565545752644539,0.03836069628596306,0.07989221066236496,0.007747427560389042,0.017794540151953697,0.06790494918823242,0.02001749910414219,-0.05271626263856888,0.10406453907489777,-0.041329119354486465,-0.0010669672628864646,-0.00854412466287613,0.02844269573688507,-0.04361904412508011,-0.06725393235683441,-0.014753986150026321,-0.027641594409942627,0.07377295941114426,-0.0011143852025270462,0.05242146924138069,0.0695890337228775,-0.032532673329114914,-0.007802233099937439,0.00254271668381989,-0.011137047782540321,-0.022517912089824677,0.007450013421475887,0.08122796565294266,-0.02497090958058834,-0.06964706629514694,-0.03057144768536091,0.01998940296471119,0.03148699179291725,0.036208681762218475,0.034212250262498856,-0.014283711090683937,-0.05381336063146591,-0.10181401669979095,-0.028797926381230354,-0.007394874934107065,-0.04113136604428291,0.0027142500039190054,0.06881154328584671,-0.026766261085867882,0.03157693147659302,0.04895404353737831,-0.04611416533589363,-0.06085050106048584,-0.03692731261253357,-0.02860153652727604,0.011207754723727703,-0.00425907876342535,0.00463437382131815,-0.08100025355815887,-3.5113496647259795e-33,0.08690530061721802,-0.04588373750448227,-0.07289854437112808,0.04462170600891113,0.020564483478665352,0.02474704384803772,-0.06555694341659546,-0.059418439865112305,-0.011349054984748363,-0.024342846125364304,0.020869750529527664,-0.02499205805361271,0.049523722380399704,-9.170712291961536e-05,-0.04527119919657707,0.05854324996471405,0.09852845221757889,-0.0405658483505249,0.049061037600040436,0.0021019033156335354,0.053481243550777435,0.05455614998936653,-0.03399999812245369,-0.045291341841220856,-0.0330524779856205,0.00038855557795614004,-0.06471056491136551,-0.11412204802036285,-0.04580510035157204,0.03852327540516853,-0.04974616318941116,-0.055635955184698105,0.07995448261499405,0.03752278536558151,-0.0006519228336401284,-0.12452338635921478,0.022265831008553505,-0.01327484380453825,-0.039711110293865204,-0.016882259398698807,0.012050491757690907,0.015756186097860336,0.0037780296988785267,0.0871753841638565,0.0018088180804625154,-0.05439288169145584,-0.11648963391780853,0.015673689544200897,0.04264821484684944,-0.05684443190693855,-0.00301868817768991,0.022529885172843933,-0.033107906579971313,-0.08611692488193512,0.03645501285791397,0.01876050978899002,-0.015305593609809875,0.044491562992334366,0.12288206070661545,0.05428566038608551,-0.024652477353811264,0.05493030697107315,-0.01378658227622509,-0.005642299074679613,0.03290730342268944,-0.03699566796422005,-0.0008552262443117797,-0.0590064711868763,-0.03312487155199051,-0.053144119679927826,0.04797639325261116,-0.01785525679588318,0.02053273282945156,0.03908521682024002,-0.0034963928628712893,0.060166772454977036,0.044770900160074234,-0.04436120763421059,0.09100635349750519,0.0633227750658989,-0.04634757712483406,-0.014891322702169418,0.05880917236208916,-0.028734732419252396,-0.011377144604921341,-0.0361650176346302,-0.04178395867347717,-0.013442265801131725,-0.012714265845716,-0.08370869606733322,0.0005478999228216708,0.013581757433712482,0.014944728463888168,0.008823629468679428,0.0396256186068058,-2.345876914944256e-08,-0.039794616401195526,0.018404100090265274,0.02584710903465748,-0.0275382399559021,-0.04469817504286766,-0.09424581378698349,0.12736918032169342,0.1255796104669571,0.03823172301054001,-0.00868154875934124,0.10010269284248352,0.034510914236307144,-0.07808447629213333,-0.038837067782878876,-0.0017831895966082811,0.0052510700188577175,-0.0759047269821167,0.016163023188710213,-0.011211460456252098,-0.010669596493244171,0.09258518368005753,-0.07542423158884048,0.02943022921681404,0.013089521788060665,0.007516036741435528,-0.06350729614496231,0.010625124908983707,0.01665467396378517,0.04113169014453888,0.09592614322900772,0.08795677870512009,-0.06578481197357178,0.014849011786282063,-0.03128594160079956,0.02438265085220337,0.025728849694132805,-0.11508634686470032,-0.04385419934988022,-0.033903177827596664,-0.006391340401023626,-0.06271939724683762,-0.14844097197055817,-0.05769919976592064,0.030584007501602173,0.033645328134298325,-0.032722409814596176,-0.06626377254724503,0.07401055842638016,-0.06370697170495987,-0.06704837083816528,0.0039678034372627735,-0.004251277539879084,-0.026230523362755775,-0.02217758819460869,-0.0084150992333889,-0.036136675626039505,0.04864035174250603,0.00743671553209424,0.010920851491391659,-0.018230300396680832,0.014026922173798084,0.002393507631495595,-0.10382895916700363,-0.009720409289002419
dataset_test/dataset_test/coastal/coastal_976.jpg,0.011100227013230324,0.038624100387096405,0.05646635591983795,0.0423186793923378,0.012632832862436771,0.03029009886085987,0.0239451564848423,-0.019425394013524055,-0.04146818816661835,0.06588722765445709,0.00021532010578084737,-0.08309588581323624,0.012932009994983673,0.007687678094953299,-0.04346352070569992,-0.016419366002082825,0.047227587550878525,-0.00027976592537015676,-0.01969652622938156,0.05547162890434265,-0.02744258940219879,0.011435936205089092,-0.016279403120279312,-0.0017234475817531347,-0.008773035369813442,0.06465254724025726,0.0009188776602968574,-0.00880241859704256,0.03009715862572193,-0.033221665769815445,0.0641237199306488,-0.023160099983215332,0.031358350068330765,0.009103814139962196,0.03365630283951759,-0.03665749356150627,0.08111119270324707,-0.0035938809160143137,0.02038782835006714,-0.004375527612864971,-0.07985193282365799,-0.013487064279615879,0.0006503097829408944,0.05305100604891777,-0.006033987272530794,-0.029673242941498756,0.006857976317405701,-0.08249786496162415,-0.03889591246843338,-0.05653528496623039,0.032269008457660675,-0.012005913071334362,-0.10154227912425995,0.06253591924905777,0.016940835863351822,0.015255313366651535,-0.03155719116330147,-0.01923922449350357,0.07342255115509033,-0.03533719480037689,-0.009116717614233494,-0.021550899371504784,-0.024832211434841156,0.009540450759232044,-0.06831815093755722,0.10914839059114456,-0.16089525818824768,0.011125161312520504,0.021708915010094643,-0.026291532441973686,0.027993956580758095,-0.005436236038804054,0.05466989427804947,0.016975922510027885,0.011664159595966339,-0.041223566979169846,0.0373961366713047,-0.08475518226623535,0.007889283820986748,-0.06923587620258331,-0.06515570729970932,0.02724001370370388,-0.017606476321816444,0.060805171728134155,-0.02300048992037773,0.03607264161109924,-0.03290368244051933,0.019013116136193275,-0.11099708080291748,-0.02753584273159504,0.06126238405704498,-0.03591551259160042,-0.035450179129838943,-0.04644352197647095,-0.030974006280303,0.05292971432209015,-0.013362187892198563,-0.047454290091991425,0.054735708981752396,0.022880101576447487,0.00442325696349144,-0.012470978312194347,0.17159892618656158,0.009919569827616215,-0.12028908729553223,-0.03186143562197685,-0.01772756315767765,-0.01752506010234356,0.0007688030018471181,-0.04444887861609459,-0.017565561458468437,-0.05965176597237587,-0.172309011220932,-0.07946417480707169,-0.013859129510819912,-0.10543443262577057,0.009896243922412395,-0.04656610265374184,0.0057303584180772305,-0.02992366813123226,0.08810580521821976,-0.015786360949277878,0.03942336514592171,-0.013386473059654236,-0.0558549128472805,0.0016395328566432,0.04864848777651787,2.467626761262932e-33,0.05666910484433174,-0.0014166895998641849,-0.05047013238072395,-0.019846903160214424,0.07324452698230743,0.007526779547333717,0.10133108496665955,0.05565407872200012,0.021627428010106087,0.0480910949409008,0.02129177376627922,0.039222147315740585,-0.0674017146229744,0.08438746631145477,0.025826044380664825,0.004207317251712084,0.024026986211538315,-0.0022141998633742332,-0.037129197269678116,0.010670420713722706,-0.04494454711675644,0.08337700366973877,0.04436984658241272,0.08130303770303726,0.08003468811511993,0.027697110548615456,-0.0017821998335421085,-0.013090824708342552,-0.05082061141729355,-0.0003218273923266679,-0.001807370805181563,0.07338590174913406,0.009865323081612587,0.027325375005602837,-0.09758471697568893,0.020307082682847977,-0.08518917113542557,-0.0720767080783844,0.07246258854866028,-0.00869191437959671,-0.05399130657315254,0.10231238603591919,0.007539302576333284,0.04443802312016487,0.05270463228225708,0.010100293904542923,0.03844868764281273,0.051308389753103256,0.0422963872551918,0.039713792502880096,-0.04080444946885109,0.0244587529450655,-0.022617841139435768,-0.008170700632035732,-0.03273401036858559,-0.056087836623191833,-0.013621808961033821,0.03345581889152527,0.03769463300704956,0.03206993266940117,0.06779392808675766,0.09422853589057922,-0.01154482364654541,-0.03861645236611366,0.038423337042331696,-0.025140991434454918,-0.057142987847328186,0.003051676321774721,0.013795951381325722,-0.08166167140007019,-0.05205821990966797,-0.035740841180086136,0.022950757294893265,0.024189475923776627,0.033849142491817474,0.04170367866754532,0.022261781617999077,-0.075711190700531,-0.09316375851631165,-0.02477198652923107,-0.035853128880262375,0.012217039242386818,0.003983920905739069,0.0014889069134369493,-0.024282721802592278,0.02382512018084526,0.07101611793041229,-0.028010552749037743,-0.06732804328203201,-0.052210044115781784,-0.012867359444499016,0.022035395726561546,-0.03915805742144585,0.01398374978452921,-0.09740134328603745,-4.634049625516961e-33,0.0678500384092331,-0.06445638090372086,-0.09561716765165329,-0.026174888014793396,0.06772363185882568,0.03950975090265274,-0.07191664725542068,-0.08337957412004471,-0.011406341567635536,0.046339429914951324,0.07968779653310776,0.019464954733848572,-0.02440311200916767,-0.009747902862727642,-0.024470336735248566,0.03226667642593384,0.045879121869802475,0.07753083109855652,0.01136756595224142,-0.03462047502398491,0.009792153723537922,0.10151799023151398,-0.050101544708013535,0.027140766382217407,-0.0045698173344135284,-0.00898061040788889,-0.031772952526807785,-0.14246177673339844,0.02421119250357151,0.06472111493349075,-0.06486532092094421,-0.027821550145745277,0.0667976513504982,0.080269955098629,0.03055378422141075,-0.08590433746576309,0.06220422685146332,-0.04038473963737488,-0.049396444112062454,0.018135884776711464,0.042865339666604996,0.02106744609773159,0.07974451035261154,0.09680819511413574,-0.041148748248815536,-0.09567819535732269,-0.1250612735748291,-0.009352085180580616,-0.04070112109184265,-0.022638432681560516,0.03614255413413048,-0.03266291320323944,-0.0020853944588452578,-0.025988513603806496,0.0026537489611655474,-0.018060406669974327,-0.005112741142511368,0.021755127236247063,0.11122312396764755,0.04570690169930458,-0.0003610170679166913,0.04443668946623802,-0.03647642582654953,0.04376266896724701,0.06335081160068512,-0.018811587244272232,-0.026243548840284348,-0.07593727856874466,-0.049169328063726425,-0.035306598991155624,-0.0029377643950283527,-0.03667350113391876,-0.033353764563798904,0.012375474907457829,0.05363544821739197,-0.013717039488255978,0.04491359740495682,-0.01355279702693224,0.02525082603096962,0.062363237142562866,0.014154999516904354,0.00544518418610096,0.08587218075990677,-0.02871067449450493,0.019696438685059547,-0.006544608622789383,-0.08354474604129791,-0.04780781269073486,-0.025753330439329147,-0.06479848176240921,-0.011613929644227028,0.059999026358127594,0.03108845092356205,0.06282125413417816,0.019798781722784042,-2.343521821046579e-08,-0.05335519090294838,0.007111015729606152,-0.01688377745449543,-0.04596368968486786,-0.036610331386327744,-0.11173781007528305,0.09293424338102341,0.07564424723386765,-0.02186531201004982,-0.024568893015384674,0.08065777271986008,-0.02487110160291195,-0.04936743527650833,-0.004685210529714823,0.031076638028025627,0.03667091950774193,-0.04519890621304512,0.043196722865104675,0.0262075774371624,-0.03077307716012001,0.05908023566007614,-0.03738386183977127,0.05614933744072914,-0.004788448102772236,-0.009898249991238117,-0.006472548469901085,0.02954665571451187,0.03547554090619087,0.042449284344911575,0.16125798225402832,0.06916257739067078,-0.03356701135635376,0.04519037529826164,-0.07648662477731705,0.048643529415130615,-0.00325502990745008,-0.10477513074874878,-0.032132312655448914,-0.08302418142557144,0.028067342936992645,-0.02965141274034977,-0.0994768813252449,-0.06686563789844513,-0.007180545479059219,0.02372298389673233,-0.0555880069732666,-0.04945232346653938,0.06795566529035568,-0.03074609488248825,-0.07678456604480743,-0.021122770383954048,-0.003021508688107133,-0.022575588896870613,-0.03587719053030014,-0.07250671833753586,0.0070090945810079575,0.0977516770362854,0.01748945377767086,0.0736878514289856,-0.06920134276151657,0.03535149246454239,0.040657270699739456,-0.05771630257368088,0.06366100907325745
dataset_test/dataset_test/coastal/coastal_221.jpg,0.05110985040664673,-0.0044136568903923035,0.07234489917755127,0.03859131410717964,-0.06234385445713997,-0.048569101840257645,-0.03278864547610283,-0.003949624951928854,-0.10287149250507355,0.0613081157207489,-0.04602183774113655,-0.07027657330036163,0.02520556002855301,-0.045479077845811844,0.013620208948850632,-0.047899287194013596,0.09593719989061356,0.01966450922191143,0.02653384394943714,0.03820473700761795,0.03358602896332741,-0.03370644897222519,-0.001350633567199111,0.013477918691933155,0.015950247645378113,0.05938304215669632,-0.08153648674488068,0.0361332930624485,-0.0018662989605218172,-0.05699189752340317,0.044227030128240585,0.00893968902528286,-0.02729698270559311,-0.004561229608952999,0.03031974285840988,-0.0052510895766317844,0.026134701445698738,0.04285716637969017,0.009899698197841644,-0.04897793382406235,-0.10613957792520523,-0.0803866758942604,-0.01959620974957943,0.04612995684146881,-0.021105997264385223,-0.04150018468499184,0.05097310245037079,-0.06867633014917374,-0.01626507379114628,-0.0776764452457428,0.08205873519182205,0.04273373633623123,-0.11074554920196533,0.029305314645171165,0.0423579141497612,0.0065501718781888485,-0.06118088588118553,-0.03802420198917389,0.06815994530916214,-0.041973140090703964,0.03363640606403351,0.01145355124026537,-0.05258289352059364,0.043013740330934525,-0.03194019943475723,0.06938711553812027,-0.14381948113441467,-0.0012388820759952068,0.020478254184126854,-0.027835708111524582,0.04607232287526131,-0.006113365758210421,-0.01181598100811243,0.0016713524237275124,0.0008439787197858095,-0.04141363501548767,0.041438955813646317,-0.10447276383638382,-0.09229086339473724,-0.01227131299674511,-0.08105462789535522,0.003704654984176159,-0.0005010024178773165,0.05947742611169815,-0.029907891526818275,-0.03468038886785507,-0.0410945750772953,-0.017471419647336006,-0.04479992762207985,-0.04456626623868942,0.04203116521239281,-0.03304557502269745,-0.00611625611782074,-0.04462572559714317,0.0025857577566057444,0.026964062824845314,-0.006408636923879385,-0.021462751552462578,0.01771467924118042,0.03740869089961052,0.024282187223434448,-0.0034361283760517836,0.11912818253040314,0.0637839138507843,-0.04897496849298477,-0.028544805943965912,0.0005391203449107707,0.02937101572751999,-0.02764742821455002,-0.0711517482995987,-0.00574748869985342,-0.03839574381709099,-0.08519968390464783,-0.06041959673166275,-0.03175150975584984,-0.056733306497335434,0.03871418535709381,-0.06741061806678772,0.054657284170389175,-0.03842892497777939,0.04658970609307289,-0.002828154480084777,0.04910622909665108,-0.025626402348279953,-0.058642469346523285,0.009544993750751019,0.023476364091038704,2.302785719079184e-33,0.025706270709633827,0.05422929674386978,-0.012531524524092674,-0.07191839069128036,0.07342229038476944,0.0007188667659647763,0.07829007506370544,0.04583224281668663,-0.027645299211144447,0.05869876593351364,0.11684177815914154,0.033246614038944244,-0.04732690006494522,0.05950234830379486,0.038071081042289734,0.03378048911690712,0.04265496879816055,0.03795401006937027,0.002783446107059717,-0.02483358420431614,-0.09803472459316254,0.07462282478809357,0.03862554579973221,0.11811565607786179,0.028670834377408028,-0.006371720228344202,0.021116821095347404,-0.0013404421042650938,-0.10521773248910904,0.01858261227607727,-0.004788414109498262,0.06395891308784485,0.07389356195926666,0.0377974808216095,-0.058676350861787796,0.012644489295780659,-0.04898790642619133,-0.031087560579180717,0.07263719290494919,-0.022000135853886604,-0.018517717719078064,0.06632515043020248,0.029641970992088318,0.04698086902499199,0.03545738384127617,0.05098341777920723,0.016064926981925964,0.0975315123796463,0.03359207138419151,0.035752277821302414,0.023889372125267982,0.030983438715338707,-0.06316765397787094,0.05008803680539131,0.0160484928637743,-0.0106919901445508,-0.0441586934030056,0.002034942852333188,0.03241340443491936,0.003866766579449177,0.03303854912519455,0.062064990401268005,-0.02164895087480545,-0.025334715843200684,0.005685337353497744,-0.015774346888065338,0.02263186126947403,0.040202438831329346,0.014602862298488617,0.0271005816757679,-0.09841451048851013,0.006659802049398422,0.004894946236163378,0.016527563333511353,0.08974668383598328,0.046301599591970444,0.020862290635704994,-0.09298810362815857,-0.024360427632927895,0.04465393349528313,-0.037450116127729416,0.05240003392100334,-0.07063619047403336,-0.0007873423164710402,-0.03734554350376129,0.018472768366336823,0.0590510293841362,-0.04371783882379532,-0.0628163143992424,-0.11539112031459808,-0.0038171724881976843,-0.03206247463822365,-0.056969981640577316,-0.01985841989517212,-0.16730764508247375,-3.745132715901485e-33,0.024930767714977264,-0.062299855053424835,-0.04582151025533676,0.0842260867357254,0.06446203589439392,0.02191496267914772,-0.08548372238874435,-0.118438221514225,-8.893384074326605e-05,0.05459214001893997,0.0537014938890934,0.05712581053376198,0.0513998381793499,-0.06436768919229507,-0.030737334862351418,-0.016925938427448273,0.062456388026475906,-0.05851290374994278,-0.0018080170266330242,0.04941459372639656,0.10939154028892517,0.12242372334003448,-0.0741739273071289,-0.07042846828699112,-0.11082343757152557,-0.003501864382997155,-0.10462705790996552,-0.09531202167272568,-0.00026051077293232083,0.04303587228059769,-0.02580992318689823,0.018619809299707413,0.070441834628582,-0.030802153050899506,0.004030307754874229,-0.02281891740858555,0.02786152809858322,-0.0307815782725811,-0.06633822619915009,0.024686312302947044,0.036339640617370605,-0.028301654383540154,0.06864311546087265,0.11594097316265106,-0.011340459808707237,-0.09167499840259552,-0.09760754555463791,-0.005037133581936359,0.004318599589169025,-0.042273424565792084,-0.001971235265955329,-0.016302336007356644,-0.028576835989952087,0.002773712854832411,0.008362500928342342,-0.04701776057481766,0.00016636164218652993,0.029563702642917633,0.11244402080774307,0.0889381393790245,0.07192109525203705,0.02096029557287693,-0.038816291838884354,0.04682311788201332,0.02087686024606228,0.004788695834577084,-0.030753472819924355,-0.023162545636296272,-0.09237012267112732,0.014989003539085388,0.03428736701607704,-0.014343068934977055,-0.0037617499474436045,-0.0312090665102005,0.03699001297354698,-0.0026824725791811943,0.04774850979447365,0.03159752115607262,0.0272796880453825,0.07867888361215591,-0.011219005100429058,-0.02214300073683262,0.06719740480184555,0.004518776200711727,0.04214126616716385,-0.0547037310898304,-0.10657831281423569,0.011258961632847786,-0.007261033169925213,-0.016405699774622917,-0.07154490053653717,0.030850153416395187,-0.017492808401584625,0.05076749622821808,-0.007461686618626118,-2.4287940547651488e-08,0.015259303152561188,0.017641844227910042,0.013673165813088417,-0.027754858136177063,-0.06630685925483704,-0.08479847759008408,0.05830688029527664,0.08514940738677979,-0.04345542564988136,-0.033589355647563934,0.02353120967745781,0.035533782094717026,-0.0021670330315828323,0.02652473747730255,0.06139371171593666,0.028498096391558647,0.010832753963768482,-0.0002653028059285134,-0.0380544476211071,-0.06441394984722137,0.039384644478559494,-0.02711906097829342,0.04713074490427971,-0.08368724584579468,-0.0591680072247982,0.02003438211977482,0.02068224735558033,-0.01841787062585354,-0.0038530819583684206,0.1128019466996193,0.0820695236325264,-0.040780190378427505,0.07634573429822922,-0.05256500467658043,-0.011269576847553253,0.04028359800577164,-0.07200800627470016,-0.028034016489982605,-0.055936988443136215,-0.037439510226249695,-0.04082075133919716,-0.09734086692333221,-0.057861972600221634,0.0729336068034172,0.03972620517015457,-0.013933444395661354,-0.030528264120221138,0.06637614965438843,-0.03465762734413147,-0.03517638146877289,-0.03442978858947754,-0.0018194093136116862,-0.0017996422247961164,-0.06687930971384048,-0.012074379250407219,0.03554174304008484,0.09152165800333023,0.017082812264561653,0.001953273778781295,4.781128154718317e-05,0.0675778016448021,0.028557188808918,-0.058604538440704346,0.009451735764741898
dataset_test/dataset_test/coastal/coastal_547.jpg,0.09302011877298355,-0.018288634717464447,0.06302156299352646,-0.01629798859357834,-0.010262619704008102,0.00603512953966856,-0.03062019683420658,-0.04796367138624191,-0.009258486330509186,0.08696345239877701,-0.02979101985692978,-0.04617319256067276,0.013159415684640408,0.029233837500214577,-0.0030596540309488773,-0.0046248408034443855,0.023561319336295128,-0.004147674888372421,-0.0033685907255858183,0.04417666792869568,-0.04965677857398987,0.015241410583257675,-0.05762945115566254,0.00807453878223896,0.005284938029944897,0.07257365435361862,-0.06441931426525116,-0.03575527295470238,0.05321793258190155,-0.03485396131873131,0.012191835790872574,-0.03976358845829964,0.02799879014492035,0.03705654293298721,-0.011607796885073185,-0.015353541821241379,0.02598513849079609,-0.03287224844098091,-0.0847063660621643,0.02058918960392475,-0.06829197704792023,0.0024401918053627014,0.003733142279088497,0.048597633838653564,0.012725476175546646,-0.023840762674808502,-0.04164619371294975,-0.08248764276504517,0.008386554196476936,-0.009994490072131157,-0.043500158935785294,-0.018487166613340378,-0.07048715651035309,0.06269209831953049,0.014650082215666771,0.018363112583756447,-0.004010437056422234,-0.0506763830780983,0.07233487069606781,-0.05032452195882797,0.017167599871754646,0.03247940540313721,-0.008744834922254086,-0.007141401059925556,-0.03145558759570122,0.07964964956045151,-0.08963879197835922,0.062203194946050644,0.040827952325344086,-0.034206323325634,0.031589023768901825,0.008608723059296608,0.030999289825558662,-0.036323223263025284,-0.017791125923395157,-0.03640366718173027,-0.04892357438802719,-0.10899662971496582,-0.05514460802078247,-0.06395795196294785,-0.016580352559685707,0.008381242863833904,-0.08760633319616318,-0.014189457520842552,-0.05960196256637573,0.043228909373283386,-0.030422409996390343,0.024763386696577072,-0.04193675145506859,-0.011976012028753757,0.03631679713726044,-0.04933031275868416,-0.022735411301255226,-0.016482705250382423,-0.008122768253087997,0.06694083660840988,-0.009511277079582214,-0.08078103512525558,0.04677853733301163,0.009461610578000546,-0.01092263963073492,0.014389789663255215,0.16217654943466187,-0.014273054897785187,-0.11964897066354752,-0.1102348119020462,0.01698995754122734,0.034547626972198486,0.010409523732960224,-0.03490925580263138,-0.05440658703446388,-0.04969203844666481,-0.10969169437885284,0.009003940969705582,0.015981776639819145,-0.03774311766028404,0.07395388185977936,-0.043978143483400345,-0.03045647218823433,-0.01646863855421543,0.07823330163955688,-0.012542449869215488,0.12764587998390198,0.053974904119968414,-0.033233899623155594,-0.03670641407370567,-0.08210168778896332,4.431036975684152e-34,0.07896070927381516,0.002265411661937833,-0.04721811041235924,0.07191217690706253,0.15130849182605743,-0.039858631789684296,0.04133448377251625,0.022508744150400162,0.014981741085648537,0.03343983367085457,0.04709841310977936,0.0692470595240593,-0.06366393715143204,0.05394537374377251,0.06883251667022705,-0.007540249731391668,0.0028110158164054155,0.010342568159103394,-0.01804877258837223,-0.00582512142136693,-0.04558267444372177,0.07055594027042389,0.028089145198464394,0.04566595330834389,0.05914044752717018,0.013312050141394138,-0.00974125973880291,0.007223490159958601,-0.13201294839382172,-0.008665156550705433,-0.007695748470723629,-0.0065682376734912395,0.0061557660810649395,-0.0255571398884058,-0.033013783395290375,0.01686953753232956,-0.015250291675329208,-0.03636934608221054,0.04765619710087776,0.0267197173088789,-0.05839182063937187,0.011873627081513405,-0.006023976486176252,0.07279326766729355,0.05099911615252495,0.06395459920167923,0.08650803565979004,0.03724643215537071,-0.01652899757027626,0.018445508554577827,0.005658895242959261,0.06443727761507034,-0.09823474287986755,-0.05532561242580414,-0.024437248706817627,-0.05549263581633568,-0.04419456794857979,0.04270254075527191,0.03898056596517563,0.011008872650563717,0.06401464343070984,0.012372014112770557,-0.022684987634420395,-0.043591927736997604,-0.08122147619724274,-0.05036952719092369,-0.02962813526391983,0.024129919707775116,0.11763878166675568,-0.04879775270819664,-0.0817081555724144,-0.019794100895524025,0.028665974736213684,0.053440921008586884,0.010318544693291187,-0.011950220912694931,-0.0424443781375885,-0.06031400337815285,-0.08109704405069351,0.06609466671943665,-0.030419161543250084,-8.860301932145376e-06,-0.015272684395313263,0.09061631560325623,-0.04628327861428261,0.010890419594943523,0.10095763951539993,0.008374063298106194,-0.08902296423912048,-0.07165252417325974,-0.06586109846830368,0.003744225250557065,0.0224013589322567,-0.033966392278671265,-0.028361139819025993,-3.526504358301971e-33,0.05701663717627525,-0.08268588036298752,-0.0982498750090599,0.016803298145532608,0.08095604926347733,0.03846713528037071,-0.1211344376206398,-0.012919589877128601,-0.026803288608789444,-0.012242692522704601,0.021769942715764046,0.06098705902695656,0.050495125353336334,-0.02914057858288288,-0.010377553291618824,-0.015596314333379269,0.08795387297868729,-0.003526831278577447,0.009684002958238125,0.04592527076601982,0.059780292212963104,0.08656477183103561,-0.015721362084150314,0.034469641745090485,-0.0039279647171497345,0.07064221054315567,-0.03669363632798195,-0.08055640012025833,-0.019295038655400276,0.05020267888903618,-0.06580351293087006,-0.04380087926983833,0.09135455638170242,-0.006441422272473574,-0.026504414156079292,-0.05696440115571022,0.10035549849271774,-0.10222116112709045,-0.07357026636600494,-0.019427331164479256,0.03692689538002014,-0.04090449586510658,0.0844041258096695,0.04965141415596008,-0.04259583353996277,-0.05050322040915489,-0.03733695670962334,0.01481709722429514,0.03704005852341652,-0.02929571457207203,0.0763559341430664,-0.03477126732468605,-0.0021049275528639555,-0.06251916289329529,0.03823648393154144,-0.06959430128335953,-0.025328675284981728,0.01466459035873413,0.08837778121232986,0.10291629284620285,-0.020326605066657066,0.04271933436393738,-0.03800396993756294,0.026204509660601616,-0.001196503872051835,-0.022226152941584587,0.0049799662083387375,-0.07518486678600311,-0.10598476231098175,-0.029489124193787575,-0.03282691538333893,-0.02407326176762581,0.001829592976719141,0.08400584757328033,0.013181958347558975,-0.01133507676422596,0.10050559043884277,-0.003180347615852952,0.08269374817609787,-0.0031832209788262844,-0.011988233774900436,0.01575305499136448,0.05057276412844658,-0.015621873550117016,0.07655073702335358,-0.020054833963513374,-0.05076206102967262,-0.028157100081443787,-0.01745445653796196,-0.061160434037446976,-0.00854939129203558,0.05047539994120598,-0.03169700875878334,0.05192992463707924,0.05731074512004852,-2.8362185489072544e-08,-0.03973164036870003,0.015549153089523315,-0.0021661450155079365,-0.02722923457622528,-0.015113460831344128,-0.1090240404009819,0.10580534487962723,0.08862694352865219,-0.01850222982466221,-0.07920638471841812,0.05462132394313812,0.005879421252757311,-0.025440506637096405,0.04833569750189781,0.04056727886199951,0.004554116167128086,-0.06106915324926376,0.01771910861134529,-0.008678006939589977,-0.003052372019737959,0.04171958193182945,-0.020088063552975655,0.033207450062036514,-0.033081624656915665,-0.05463617667555809,-0.02285786345601082,-0.031664758920669556,-0.028656605631113052,0.05855769291520119,0.10847178101539612,0.042186856269836426,-0.03512057662010193,0.010215456597507,-0.01678433082997799,0.01205584779381752,0.05058731511235237,-0.06357506662607193,-0.05460277572274208,-0.10496842116117477,-0.011842690408229828,0.00929544772952795,-0.14641375839710236,-0.031106825917959213,-0.016296880319714546,0.01061192899942398,-0.013695785775780678,-0.08112579584121704,0.06508636474609375,-0.008365746587514877,-0.01223855558782816,0.025977712124586105,0.0017233280232176185,0.05350466072559357,-0.005659212823957205,0.03106272779405117,-0.04077272117137909,0.07629938423633575,0.009094075299799442,0.06781765818595886,-0.03727398067712784,0.09433022886514664,-0.002877530176192522,-0.08253409713506699,0.05927348881959915
dataset_test/dataset_test/coastal/coastal_157.jpg,0.08525408059358597,0.008279047906398773,0.014524633064866066,0.00781768374145031,0.009068472310900688,0.0024021563585847616,-0.0423097237944603,-0.07738275825977325,-0.023454574868083,0.08761554211378098,0.040804650634527206,-0.14748713374137878,-0.023700308054685593,0.017673280090093613,-0.022976797074079514,-0.010060872882604599,0.040450625121593475,0.010246026329696178,-0.05237511545419693,-0.014967413619160652,-0.022148435935378075,0.07739388197660446,-0.010959137231111526,-0.009299063123762608,-0.0028478363528847694,0.02035047858953476,-0.04705817252397537,0.007687845267355442,0.05147159844636917,-0.0668797641992569,0.03845255449414253,0.041422076523303986,0.06519079953432083,0.03452857956290245,0.04255647584795952,-0.0014310290571302176,0.011894580908119678,-0.011314976029098034,0.020318016409873962,0.03470113128423691,-0.03193658962845802,-0.0326945036649704,0.035692211240530014,0.05007492005825043,-0.08713393658399582,0.02439882606267929,-0.007849805057048798,-0.06188289076089859,-0.034370992332696915,-0.0903082862496376,-0.0018430748023092747,-0.000140533855301328,-0.06338192522525787,0.07563400268554688,0.029042158275842667,0.03142530471086502,-0.007832315750420094,-0.052820079028606415,0.044663503766059875,-0.04173955321311951,-0.012721136212348938,-0.007495325990021229,-0.014699563384056091,-0.007097055669873953,-0.06840623915195465,0.11896354705095291,-0.1276938021183014,0.008754799142479897,0.0006669507129117846,-0.07935625314712524,-0.00027126880013383925,-0.01624384894967079,0.033609408885240555,0.027243245393037796,-0.00492045609280467,-0.04642949625849724,0.03886665031313896,-0.0796549916267395,0.003460320644080639,-0.08061130344867706,-0.07853105664253235,0.0738808885216713,-0.012579125352203846,0.02900381200015545,-0.08627686649560928,0.025896409526467323,-0.018947742879390717,0.049001194536685944,-0.07242592424154282,-0.041595209389925,0.020877622067928314,-0.011399401351809502,-0.03591802343726158,-0.025257974863052368,-0.06772316247224808,0.07210643589496613,0.011236434802412987,-0.051417652517557144,0.04719683527946472,0.02707754634320736,0.011926405131816864,-0.044552918523550034,0.15264758467674255,0.013115760870277882,-0.16286802291870117,-0.08801527321338654,0.020100880414247513,0.017165496945381165,0.055465131998062134,-0.05221275985240936,-0.07620172947645187,0.002791508799418807,-0.1438877433538437,-0.020170532166957855,0.005305349826812744,-0.11718326807022095,0.09063335508108139,-0.027060620486736298,-0.016865216195583344,-0.03445601835846901,0.0620834156870842,0.005509998183697462,0.05251162499189377,0.011860279366374016,-0.03220989182591438,-0.011400485411286354,-0.01170674990862608,1.8948686081927108e-33,0.060936037451028824,-0.03326437249779701,-0.0012770402245223522,0.01035058032721281,0.1642267405986786,-0.02252841554582119,0.053453896194696426,-0.028181828558444977,0.057464420795440674,0.05818244442343712,-0.006127289496362209,0.029186341911554337,-0.1316719502210617,0.10967160761356354,0.06803476065397263,0.03181111440062523,-0.01050420943647623,-0.0202203206717968,-0.026716846972703934,-0.012918061576783657,-0.053922995924949646,0.07536307722330093,0.006975541356950998,0.03479345142841339,0.08084635436534882,0.00019425302161835134,0.04347458854317665,-0.006412438116967678,-0.046882279217243195,-0.016207251697778702,0.05658330023288727,0.03210269659757614,0.012426350265741348,0.02191576361656189,-0.07159688323736191,0.010566597804427147,-0.024268481880426407,0.009603946469724178,0.05031170696020126,-0.018103748559951782,-0.029520947486162186,0.054691847413778305,0.020509464666247368,0.053877659142017365,0.007646001875400543,0.019839569926261902,0.029447276145219803,0.04128669947385788,0.006753152702003717,0.05117649957537651,0.017729317769408226,0.035650670528411865,-0.018098661676049232,-0.030572818592190742,0.007118416018784046,-0.03115416131913662,-0.028494441881775856,0.0018124469788745046,0.026445142924785614,0.01160118542611599,0.06964758038520813,0.03224813938140869,-0.056423962116241455,-0.0547422431409359,0.026513025164604187,0.00335891405120492,-0.08338002115488052,-0.01968783512711525,0.0672813132405281,-0.04053621366620064,-0.08287394046783447,-0.032602883875370026,0.024202002212405205,0.03206446394324303,-0.010433305986225605,0.05949552357196808,-0.023181408643722534,-0.06492754071950912,-0.04938188195228577,0.0012201714562252164,0.012331543490290642,0.011856048367917538,-0.05857495218515396,0.018928082659840584,-0.028666462749242783,-0.014530106447637081,0.047569405287504196,-0.009305750019848347,-0.04107891395688057,-0.05095745995640755,-0.03835143521428108,0.0470978207886219,0.009269590489566326,-0.01042996533215046,-0.038164447993040085,-4.374728959569841e-33,0.0472341924905777,-0.014781839214265347,-0.08996663242578506,0.019245022907853127,0.11110247671604156,0.022550730034708977,-0.12951764464378357,-0.02023686096072197,-0.03757640719413757,-0.03129811957478523,0.02222377620637417,0.04202092066407204,0.005005003418773413,-0.040612153708934784,0.008200458250939846,0.018877537921071053,0.09796181321144104,0.06365693360567093,0.03799125924706459,-0.01255780179053545,0.02753470465540886,0.1270439624786377,-0.057557132095098495,-0.007907354272902012,-0.027175933122634888,0.008254112675786018,-0.003015125636011362,-0.052330080419778824,-0.030084719881415367,0.008579649031162262,-0.06717856973409653,-0.07070176303386688,0.10341978073120117,0.03511788696050644,-0.04540561884641647,-0.0977129340171814,0.05315018445253372,-0.1040196567773819,-0.05083950608968735,-0.02898351661860943,0.044426556676626205,-0.0019406756618991494,0.0626683309674263,0.09050849825143814,-0.04118344187736511,-0.0855066329240799,-0.09058696776628494,0.02097013033926487,0.03182993829250336,-0.015148460865020752,0.03299882635474205,-0.03128261864185333,0.013590444810688496,-0.06830848753452301,0.026102211326360703,0.022334778681397438,-0.01951645128428936,0.030242841690778732,0.10118303447961807,0.05319943651556969,-0.051568686962127686,0.08268987387418747,-0.03147890791296959,0.03361377492547035,0.043455787003040314,0.007967489771544933,-0.02919727750122547,-0.09234534949064255,-0.04747265949845314,-0.03098144754767418,-0.003548217471688986,-0.004132689908146858,0.0019007008522748947,0.0226577315479517,0.03675467520952225,-0.011882065795361996,0.035476699471473694,0.026736173778772354,0.05988777428865433,0.04773169383406639,0.016865473240613937,0.0006266304990276694,0.060155004262924194,-0.02961442433297634,0.034544676542282104,-0.028612753376364708,-0.049667175859212875,-0.03517777472734451,0.052293967455625534,-0.02880457416176796,-0.04301753267645836,0.07937120646238327,-0.021126648411154747,0.09815262258052826,0.06482373923063278,-2.4956912980655943e-08,-0.0019161191303282976,-0.022122390568256378,-0.04674301669001579,-0.10147683322429657,-0.02217951789498329,-0.10439841449260712,0.118543341755867,0.08819245547056198,0.005570903420448303,-0.04416137561202049,0.07321305572986603,0.05720279738306999,-0.045316245406866074,0.027734072878956795,0.03033808432519436,0.004858623258769512,0.0013745587784796953,0.027969764545559883,0.010997100733220577,0.01806381531059742,0.05634581297636032,-0.019993390887975693,0.04706275463104248,0.01436934806406498,-0.025051577016711235,-0.05603832006454468,-0.041975729167461395,0.0026486737187951803,-0.017229994758963585,0.12097209692001343,0.07392516732215881,0.03630392998456955,0.03016960620880127,-0.022945834323763847,0.005798041354864836,0.02436629682779312,-0.1405106782913208,-0.09413889795541763,-0.08294018357992172,-0.013048175722360611,-0.015634503215551376,-0.08718961477279663,-0.024506080895662308,-0.026454726234078407,0.04615750536322594,-0.010824252851307392,-0.0521155521273613,0.035751160234212875,-0.03862791508436203,-0.022536501288414,-0.018662476912140846,0.011193295940756798,0.03401334583759308,-0.022034509107470512,-0.05415504425764084,-0.032844580709934235,0.09386877715587616,-0.008813589811325073,0.0747012123465538,-0.02702334150671959,0.020192211493849754,-0.005311904940754175,-0.05357050523161888,0.019227080047130585
dataset_test/dataset_test/coastal/coastal_181.jpg,0.051572151482105255,0.009315043687820435,0.02351190522313118,0.00816551223397255,-0.014897333458065987,0.025169361382722855,0.026659786701202393,-0.0537530854344368,-0.06449301540851593,0.07834937423467636,-0.0018426546594128013,-0.07030724734067917,-0.01510014757514,0.04366258531808853,-0.016992051154375076,-0.0173530001193285,0.07102760672569275,0.007638193666934967,-0.013554205186665058,0.03502645343542099,0.06469570845365524,0.013477138243615627,-0.021690979599952698,0.012427367269992828,-0.049592845141887665,0.0790574699640274,0.006419849116355181,0.02494373358786106,0.043568387627601624,-0.01738899201154709,0.0273507721722126,-0.019255340099334717,0.06432826071977615,-0.02748914621770382,0.031358759850263596,-0.04627019912004471,0.04887492209672928,-0.015198606066405773,0.00014868963626213372,0.0013381436001509428,-0.07764900475740433,-0.032020311802625656,-0.0121749397367239,0.05906674638390541,-0.02967447228729725,-0.060269877314567566,0.06322211772203445,-0.07928008586168289,-0.01998600736260414,-0.10429355502128601,0.042651720345020294,0.0332350917160511,-0.09995559602975845,0.048527996987104416,0.01372933853417635,-4.549116420093924e-05,-0.03045598790049553,-0.035837169736623764,0.12121228128671646,-0.0742625743150711,-0.028249084949493408,-0.014497540891170502,-0.0033410689793527126,0.03947674483060837,-0.025783497840166092,0.09354088455438614,-0.13382236659526825,0.03063155896961689,0.004629791714251041,-0.06665219366550446,0.0003013983368873596,-0.02494494616985321,0.09023543447256088,0.01681470312178135,-0.008577275089919567,0.018168384209275246,0.06338904798030853,-0.09819262474775314,-0.0908309817314148,-0.061938755214214325,-0.03986826911568642,-0.019310476258397102,-0.0008073262288235128,0.038611363619565964,-0.04402684047818184,0.012316000647842884,-0.03648284077644348,0.025112835690379143,-0.04502513259649277,-0.067949578166008,0.02505766786634922,-0.001782872248440981,0.0006690121372230351,-0.042246922850608826,0.008413161151111126,0.0683494508266449,-0.03764002025127411,-0.020092863589525223,0.05019969865679741,0.04042135179042816,0.006901708897203207,-0.007196452002972364,0.16581973433494568,0.08183037489652634,-0.07298941910266876,-0.053213924169540405,0.07755774259567261,0.03245411813259125,0.04387766122817993,-0.010667999275028706,-0.03464984521269798,-0.04154961183667183,-0.10580349713563919,-0.011748531833291054,-0.016518795862793922,-0.1518278270959854,0.05763527750968933,-0.006642854306846857,0.015958767384290695,-0.05531500652432442,0.09218727052211761,-0.016378911212086678,0.059540506452322006,-0.023687172681093216,-0.04864480718970299,0.016583871096372604,0.01401395071297884,4.443006079569415e-33,0.0451226569712162,-0.00020678523287642747,-0.028536690399050713,0.00741466274484992,0.12862829864025116,-0.03762298449873924,0.0484684482216835,0.0038963763508945704,0.015529252588748932,0.06281367689371109,0.038376934826374054,0.049763500690460205,-0.0938415452837944,0.08833134174346924,0.02470390498638153,0.011723454110324383,0.03155786916613579,0.013657216913998127,-0.000539030646905303,-0.038168638944625854,-0.03792564198374748,0.08885464817285538,0.035053253173828125,0.07629253715276718,0.05020865797996521,0.034893788397312164,-0.007577636744827032,-0.008558458648622036,-0.0562901608645916,-0.0012481100857257843,0.045254841446876526,0.08248239755630493,0.03792984411120415,0.027953172102570534,-0.1005997508764267,0.010705702938139439,-0.07551120221614838,-0.05463246628642082,0.019591761752963066,-0.017037086188793182,-0.06875894963741302,0.02858620695769787,-0.01573372446000576,0.09538797289133072,0.03327574208378792,-0.03144492208957672,0.048996079713106155,0.06488558650016785,0.04633804038167,0.09206851571798325,-0.03404617682099342,0.001731640542857349,-0.0830034464597702,-0.027801185846328735,-0.04234284535050392,-0.07974182814359665,-0.039498042315244675,0.008566095493733883,0.046313244849443436,0.027246879413723946,0.028406962752342224,0.0589691624045372,-0.0481623113155365,-0.024687085300683975,0.014023993164300919,-0.007958111353218555,-0.026833441108465195,0.024809814989566803,0.026370035484433174,-0.051283374428749084,-0.08835577219724655,-0.010100707411766052,0.021136194467544556,0.034127868711948395,0.021607020869851112,0.024000821635127068,-0.01145720761269331,-0.06773295253515244,-0.11378109455108643,-0.014674734324216843,-0.030617939308285713,-0.06226332113146782,-0.04696490615606308,0.04451711103320122,-0.04350867494940758,0.05059105530381203,0.062049150466918945,-0.006230988074094057,-0.008602841757237911,-0.09068770706653595,-0.037748776376247406,-0.028715651482343674,-0.05702623724937439,0.0009699371294118464,-0.10459376871585846,-5.6757385564111014e-33,0.04750622436404228,-0.05756242573261261,-0.0826662927865982,0.032956719398498535,0.06909545511007309,0.009999826550483704,-0.05694085732102394,-0.05715147405862808,-0.0076501378789544106,-0.00263703684322536,0.025844845920801163,0.027581777423620224,0.04651816189289093,-0.028755661100149155,-0.06119370087981224,0.056385401636362076,0.07769833505153656,-0.006368606351315975,0.016340626403689384,0.01717592217028141,0.0426153764128685,0.10943953692913055,-0.054569486528635025,-0.02012929506599903,0.0036669736728072166,0.030708903446793556,0.012711659073829651,-0.09416746348142624,-0.03939693793654442,0.03220225125551224,-0.04840276017785072,-0.008017285726964474,0.11781789362430573,0.02651279605925083,-0.01630726270377636,-0.06940674036741257,0.006710499059408903,-0.07764940708875656,-0.0654878243803978,0.0013441212940961123,0.03057299181818962,-0.008663245476782322,0.027467038482427597,0.08568346500396729,-0.04756287485361099,-0.04766424745321274,-0.09223996102809906,0.0641852468252182,0.03638212010264397,-0.04589767009019852,0.0047584339044988155,0.020031632855534554,-0.016439037397503853,-0.026135865598917007,0.06675977259874344,-0.0264492928981781,-0.014208666048943996,0.07832570374011993,0.035962630063295364,0.024882808327674866,0.007328695617616177,0.06731528043746948,-0.03500673547387123,0.04517972841858864,0.11563920229673386,-0.017348824068903923,-0.024219851940870285,-0.09137165546417236,-0.05989870801568031,-0.019112316891551018,0.007159951608628035,-0.040626756846904755,-0.007785430643707514,-0.006599836517125368,0.05619780719280243,0.0002424229314783588,0.013481817208230495,-0.05494903028011322,0.018261613324284554,0.06527124345302582,-0.010248526930809021,0.0074623157270252705,0.11543502658605576,-0.0033958563581109047,0.010894800536334515,-0.028584862127900124,-0.06581113487482071,0.022667082026600838,-0.003927459474653006,-0.06514500081539154,0.010814367793500423,0.06822113692760468,0.01978752575814724,0.044560227543115616,0.05231461673974991,-2.7807056213191572e-08,0.0006876769475638866,0.04873918741941452,-0.004825624171644449,-0.05578330531716347,-0.02805062010884285,-0.10221616178750992,0.059032756835222244,0.07446512579917908,-0.0014776611933484674,-0.0160976592451334,0.07364512234926224,-0.03600572422146797,-0.03344468027353287,0.0005533414077945054,0.018441760912537575,0.014008667320013046,-0.023567264899611473,0.03850257396697998,0.0252478439360857,-0.03837011381983757,-0.0044975243508815765,-0.03377390280365944,0.056441985070705414,-0.0010020977351814508,-0.04333417862653732,-0.005054881330579519,0.0029180110432207584,-0.004584132693707943,0.03866780921816826,0.0939495861530304,0.05333578214049339,-0.05508185550570488,0.07969318330287933,-0.047488052397966385,0.013923761434853077,0.0579552948474884,-0.11354080587625504,-0.03255695104598999,-0.08662519603967667,-0.03547384589910507,-0.021582286804914474,-0.16747123003005981,-0.03626956790685654,-0.00190991151612252,0.02151123434305191,-0.005844122264534235,-0.09551230818033218,0.10096867382526398,-0.041537877172231674,-0.09386264532804489,-0.014061229303479195,-0.0006521830218844116,-0.0339621976017952,-0.03333406150341034,0.0024797674268484116,-0.03133648633956909,0.06390172243118286,0.04349805787205696,0.062018148601055145,0.011973081156611443,0.03784509003162384,0.03172793611884117,-0.09498149901628494,-0.020528318360447884
dataset_test/dataset_test/coastal/coastal_37.jpg,0.04706145450472832,0.03133762255311012,0.07350456714630127,0.04385776445269585,-0.02003183402121067,0.01280818972736597,0.018512343987822533,-0.031566593796014786,-0.09346341341733932,0.018003566190600395,-0.031855303794145584,-0.06091342493891716,0.003212353913113475,0.06900952756404877,-0.0011690325336530805,-0.015618856996297836,0.09163651615381241,0.01789781264960766,-0.04180014878511429,0.05313841626048088,0.03423633053898811,-0.011295333504676819,-0.02321922779083252,0.003980994690209627,-0.0515277273952961,0.06973811984062195,-0.007789745461195707,-0.0034907872322946787,0.04414709284901619,-0.04915142431855202,0.014732805080711842,0.0010377763537690043,0.031901467591524124,-0.023006301373243332,0.08731241524219513,-0.03973919898271561,0.06260263919830322,-0.0451149120926857,0.01640413887798786,-0.03957096114754677,-0.05941762030124664,-0.048208605498075485,-0.012296300381422043,0.10766930878162384,-0.02817053161561489,-0.006540846545249224,0.03740357607603073,-0.07209713757038116,-0.019061392173171043,-0.0457816980779171,-0.0028896743897348642,0.011268747970461845,-0.08452439308166504,0.04363615810871124,0.029582539573311806,-0.04557562619447708,-0.028659043833613396,-0.031116001307964325,0.10028553754091263,-0.05768982321023941,-0.03625256568193436,0.014133783988654613,-0.03282669931650162,0.07272721827030182,-0.049559883773326874,0.08144652098417282,-0.09014751762151718,0.09077166020870209,0.016782568767666817,-0.04980451986193657,0.03519473969936371,0.017241911962628365,0.07575224339962006,0.053102537989616394,-0.00437844917178154,0.01911582238972187,0.049852535128593445,-0.12049207091331482,-0.09539886564016342,-0.041802555322647095,-0.043906208127737045,-0.027140598744153976,-0.03143540024757385,0.04725020006299019,-0.0791453942656517,0.016927996650338173,-0.0512518472969532,-0.025598907843232155,-0.05481187254190445,-0.012289241887629032,0.051009003072977066,-0.04286639019846916,-0.028448669239878654,-0.06052333489060402,0.02180372178554535,0.021203376352787018,-0.08135680109262466,-0.04556833952665329,0.05795940011739731,0.034362126141786575,-0.02958451770246029,0.005980209447443485,0.15464402735233307,0.0569496676325798,-0.02439606934785843,-0.07890984416007996,0.03619673103094101,0.022869279608130455,0.021265726536512375,-0.033539194613695145,-0.042209867388010025,-0.07951999455690384,-0.08806382119655609,-0.03248446807265282,-0.056784871965646744,-0.12498608231544495,0.04061172902584076,-0.04022015258669853,0.01047010999172926,-0.03254750743508339,0.08604609221220016,-0.05548137426376343,0.08027885854244232,-0.017866743728518486,-0.1211746484041214,-0.028199905529618263,-0.006169356405735016,2.761584286611992e-33,0.02100025862455368,-0.018184971064329147,-0.003990163095295429,0.035100340843200684,0.08989217877388,-0.046474650502204895,0.052248358726501465,0.0058917393907904625,-0.005936173256486654,0.032969314604997635,0.016738299280405045,0.04565581679344177,-0.0887652263045311,0.0852099135518074,0.002625173656269908,0.0009602074278518558,0.018905531615018845,-0.009231677278876305,-0.033521074801683426,0.0009855860844254494,-0.011216352693736553,0.05904499813914299,0.055804502218961716,0.05843672901391983,0.010321049951016903,0.01944160833954811,-0.02657092735171318,0.020581349730491638,-0.03981078788638115,0.018962400034070015,0.022802527993917465,0.08838918805122375,0.050491366535425186,0.07622364908456802,-0.0920913815498352,0.060322489589452744,-0.08636187762022018,-0.06559993326663971,-0.04961228743195534,0.0009966575307771564,-0.05139371380209923,0.020222878083586693,-0.017679814249277115,0.1015014573931694,0.03947317972779274,-0.04434530436992645,0.006540291011333466,-0.02110918238759041,0.052964795380830765,0.08631046116352081,0.0058395396918058395,0.025075888261198997,-0.15563908219337463,-0.030314218252897263,-0.005187677219510078,-0.10044202208518982,-0.009368850849568844,0.00694257440045476,0.03849538043141365,-0.0023829916026443243,-0.02006671577692032,0.03165631368756294,-0.019273953512310982,-0.01428901869803667,0.07625288516283035,0.01047299150377512,-0.03425731882452965,0.004384978208690882,-0.004429939202964306,-0.04909238964319229,-0.07293909788131714,0.007805712521076202,0.02664397470653057,0.03233151510357857,0.026301857084035873,0.03789791464805603,0.008790714666247368,-0.07585764676332474,-0.07256339490413666,0.018328703939914703,-0.031771015375852585,-0.0026803084183484316,-0.040860384702682495,0.0792144313454628,-0.025754742324352264,0.062082406133413315,0.09143825620412827,0.03694819658994675,-0.015664471313357353,-0.07354864478111267,-0.0012474633986130357,-0.015409090556204319,-0.01500606071203947,-0.049441784620285034,-0.14661656320095062,-4.341498836298049e-33,0.052825167775154114,-0.04921170696616173,-0.07082760334014893,0.04930872470140457,0.041232120245695114,0.014667745679616928,-0.03664825111627579,-0.02272087149322033,0.008213210850954056,0.0753057524561882,0.05018879845738411,0.032628510147333145,0.05676867440342903,-0.024919886142015457,-0.03986133635044098,0.046464771032333374,0.15521320700645447,-0.01749272271990776,-0.0185630451887846,0.07198087871074677,0.032959967851638794,0.14569994807243347,-0.05308985710144043,0.003935512155294418,-0.04616392031311989,0.024441339075565338,0.025183426216244698,-0.10215058922767639,-0.012680022977292538,0.04314259812235832,-0.06538722664117813,0.02698524110019207,0.10143330693244934,0.049932170659303665,0.012036302126944065,-0.036315903067588806,0.021994292736053467,-0.016107480973005295,-0.05624508857727051,0.0018027022015303373,-0.0024657882750034332,-0.006688436958938837,0.014972936362028122,0.07791568338871002,-0.022411568090319633,-0.07833952456712723,-0.11931465566158295,0.02368929423391819,-0.0014585558092221618,-0.017315952107310295,0.00503117311745882,-0.029997043311595917,-0.009083856828510761,-0.054083842784166336,0.05529649928212166,-0.008926835842430592,-0.026688119396567345,0.052728187292814255,0.0701107382774353,0.029891017824411392,0.039825618267059326,0.0616232194006443,-0.022296806797385216,0.02773168310523033,0.031633563339710236,0.012763695791363716,-0.013378914445638657,-0.07764512300491333,-0.11152887344360352,0.045035701245069504,0.004026807378977537,-0.0008802870870567858,-0.03886636346578598,-0.009324880316853523,0.062162693589925766,-0.06917502731084824,-0.009101134724915028,0.022465083748102188,-0.007938896305859089,0.08662578463554382,0.008756112307310104,0.029195599257946014,0.08870894461870193,-0.005491419229656458,0.08413770794868469,-0.07568909227848053,-0.10059241950511932,0.03599812462925911,0.025282658636569977,-0.051738958805799484,-0.00800369307398796,0.046215977519750595,0.0012786518782377243,0.04671178013086319,0.08832186460494995,-2.7907841371188624e-08,-0.028796885162591934,-0.008927293121814728,0.019119536504149437,-0.018900664523243904,-0.007677196525037289,-0.10058356821537018,0.012927048839628696,0.086005300283432,-0.0038945884443819523,-0.011828809045255184,0.05159095302224159,0.04475228860974312,-0.05487164855003357,-0.010629146359860897,-0.017918093129992485,0.03176601603627205,-0.005041604395955801,-0.026344481855630875,-0.0018931777449324727,-0.036093637347221375,-0.003340307855978608,-0.022286249324679375,0.04861163720488548,-0.02344227395951748,-0.02247133105993271,0.011933581903576851,-0.02205011434853077,-0.027072591707110405,0.003703078255057335,0.033089302480220795,0.09381185472011566,-0.048157136887311935,0.012185043655335903,-0.04819739982485771,-0.018681522458791733,0.06581216305494308,-0.043688058853149414,-0.01014169491827488,-0.09668180346488953,-0.0037408561911433935,-0.010360662825405598,-0.14031042158603668,-0.03580343350768089,0.019108334556221962,0.035111140459775925,0.0020360255148261786,-0.07348238676786423,0.05521421134471893,-0.08942528069019318,-0.07113946229219437,0.01784341223537922,-0.00047956922207958996,-0.006550251506268978,-0.0071069966070353985,0.02565530315041542,-0.027542905882000923,0.08268251270055771,0.04142231121659279,0.04521781951189041,0.010309132747352123,0.035721223801374435,0.0452822670340538,-0.058454763144254684,0.007870647124946117
dataset_test/dataset_test/coastal/coastal_142.jpg,0.011169794015586376,0.01893794536590576,0.10289614647626877,0.0035689494106918573,-0.040736448019742966,0.03435012698173523,0.015179977752268314,-0.010032616555690765,-0.11757142096757889,0.040030550211668015,-0.05359528213739395,-0.07742737978696823,0.028795411810278893,0.0026414766907691956,-0.006432470865547657,0.02513395994901657,0.1090860515832901,0.019119106233119965,-0.022559041157364845,0.03285601735115051,0.02379012107849121,-0.014718298800289631,0.0021563638001680374,0.025922399014234543,-0.020180266350507736,0.11637179553508759,-0.014295057393610477,0.018365105614066124,0.05502646416425705,-0.04432016611099243,-0.01019531860947609,-0.007581844460219145,0.07534243911504745,-0.020189203321933746,0.07473670691251755,-0.009970488026738167,0.03790725767612457,-0.023854320868849754,0.03082197718322277,0.009504004381597042,-0.08995332568883896,-0.060485925525426865,-0.0035287525970488787,0.0836464986205101,0.010320869274437428,-0.017064547166228294,0.0745684877038002,-0.07548893988132477,-0.03491753712296486,-0.021576715633273125,0.020863650366663933,0.02561826817691326,-0.08764001727104187,0.019083959981799126,0.024250594899058342,-0.023631777614355087,0.0013204183196648955,-0.03361998498439789,0.08530043810606003,-0.04740859195590019,-0.04826076701283455,0.03460127115249634,-0.03113863244652748,0.044324684888124466,-0.06628323346376419,0.0901106521487236,-0.09858304262161255,0.037293627858161926,0.03911886364221573,-0.03691566735506058,0.020242005586624146,0.012162893079221249,0.039872199296951294,0.0591207779943943,0.0025515826418995857,0.009590281173586845,0.07434340566396713,-0.1427704095840454,-0.06848140060901642,-0.08967620134353638,-0.09362868964672089,-0.0008831674931570888,0.02053694985806942,0.025208434090018272,-0.047160785645246506,0.0030997456051409245,-0.06783486902713776,-0.0008574093808420002,-0.04025939479470253,-0.016038034111261368,0.04611290618777275,-0.045858416706323624,-0.02511952631175518,-0.05630873888731003,0.018405377864837646,0.06808453798294067,-0.02862423099577427,-0.03877289965748787,0.046261660754680634,0.04673999175429344,0.0285577941685915,0.019725052639842033,0.10499453544616699,0.04777292162179947,-0.037454746663570404,-0.037896670401096344,0.014201514422893524,0.0008316056337207556,0.009102710522711277,-0.004206215031445026,-0.03294697031378746,-0.05949997156858444,-0.11828213930130005,-0.030846623703837395,-0.06013472005724907,-0.08384578675031662,0.00292396848089993,-0.04973156377673149,0.02003457024693489,-0.03704417496919632,0.07248562574386597,-0.0680764690041542,0.014545493759214878,-0.03273027017712593,-0.09594167768955231,-0.0194514412432909,-0.007652993313968182,3.0476632447456584e-33,0.026104355230927467,-0.00218071392737329,-0.0185623187571764,0.017091911286115646,0.048420265316963196,-0.023616695776581764,0.0756809264421463,0.01670459471642971,-0.005978494882583618,0.0850733146071434,0.06316373497247696,0.08686929941177368,-0.09129820019006729,0.08307106792926788,0.013757663778960705,0.03096330352127552,-0.003100539557635784,0.006194994784891605,0.003268664004281163,-0.011176117695868015,-0.05004236102104187,0.027744928374886513,0.024429745972156525,0.06958167254924774,0.029560547322034836,0.0414622537791729,-0.013996760360896587,0.04522169381380081,-0.0834653452038765,-0.0034400755539536476,0.03968661278486252,0.0797385722398758,0.06583761423826218,0.04510771110653877,-0.08431483060121536,-0.03772127255797386,-0.06519553065299988,-0.05858023464679718,0.015580566599965096,-0.0003798706748057157,0.019299941137433052,0.01306823268532753,-0.01590684801340103,0.10713641345500946,0.05762488394975662,-0.03491548076272011,0.01612704247236252,0.014438828453421593,0.09153231978416443,0.047086264938116074,-0.003469501156359911,0.04105596989393234,-0.11525645852088928,-0.029970508068799973,-0.0017155178356915712,-0.08679436892271042,-0.019617779180407524,-0.014581148512661457,-0.0033143076580017805,0.012089508585631847,-0.015353844501078129,0.05922476574778557,0.010436921380460262,-0.01065230555832386,0.06472393870353699,-0.01986873336136341,-0.04420206695795059,-0.006295795552432537,0.0029867321718484163,-0.014054914005100727,-0.05249311029911041,0.0312194861471653,-0.0042844004929065704,-0.01250485796481371,-0.0028967405669391155,0.04183090850710869,0.03531433269381523,-0.10090146213769913,-0.06034039705991745,-0.008522741496562958,-0.03440609946846962,-0.034117985516786575,-0.04067032039165497,0.05231356993317604,-0.065006785094738,0.03319356217980385,0.09512012451887131,-0.04856857657432556,-0.015763545408844948,-0.09546753019094467,-0.019525650888681412,-0.04011602699756622,-0.09886609017848969,-0.045029416680336,-0.14395123720169067,-4.849593045129536e-33,0.03338903561234474,-0.006936319638043642,-0.06129228696227074,0.05168493837118149,0.03925454616546631,0.010042720474302769,-0.05154474824666977,-0.029733335599303246,-0.012539982795715332,0.07078412920236588,0.044823501259088516,0.022854723036289215,0.03622940927743912,-0.04677692428231239,-0.05593667924404144,0.026353254914283752,0.07579303532838821,0.00010025141091318801,0.00458890525624156,0.03498208522796631,0.032806266099214554,0.12151212245225906,-0.055021289736032486,-0.0034732266794890165,-0.04981425404548645,0.029314516112208366,-0.049106914550065994,-0.12552393972873688,-0.001362159731797874,0.060834113508462906,-0.026186740025877953,0.0207169521600008,0.13198734819889069,0.018396221101284027,-0.0020873069297522306,-0.06318440288305283,0.029179716482758522,-0.048443473875522614,-0.029862605035305023,0.01599586196243763,0.03865482658147812,-0.031535107642412186,0.07265912741422653,0.07870287448167801,-0.03415852412581444,-0.12813101708889008,-0.11506137251853943,0.04563773795962334,0.025319747626781464,0.01972074620425701,0.009226029738783836,-0.019351664930582047,-0.007193244528025389,-0.04661914333701134,0.03003874234855175,0.023773008957505226,-0.0680762454867363,0.016771286725997925,0.07535792887210846,0.05471320450305939,0.057837482541799545,0.08082231134176254,-0.03473832830786705,0.042926572263240814,0.06781328469514847,-0.02548808790743351,0.0016221646219491959,-0.09401463717222214,-0.09083258360624313,0.04503316804766655,0.011310425586998463,0.018273763358592987,-0.002566138282418251,-0.01350022479891777,0.06209775432944298,-0.0594928152859211,0.007412989158183336,0.036034081131219864,0.01698971726000309,0.0872901976108551,0.010164077393710613,0.051879316568374634,0.07327274233102798,0.04291205480694771,0.038617584854364395,0.008299620822072029,-0.10801249742507935,0.043924663215875626,0.033990196883678436,-0.03711448982357979,-0.0346042662858963,0.05162561684846878,-0.006021424196660519,0.03885573148727417,0.016346819698810577,-2.410859067936144e-08,0.00943735707551241,0.020702121779322624,-0.0037108093965798616,-0.03181973099708557,-0.03929196670651436,-0.08755350857973099,0.039151791483163834,0.0497741773724556,-0.03832925856113434,-0.00789953675121069,0.048107169568538666,0.043858595192432404,-0.0764150619506836,0.01144400890916586,0.03287123888731003,-0.0255180262029171,-0.01919390819966793,-0.008114286698400974,-0.01854732260107994,-0.05773243308067322,0.015117756091058254,-0.018990017473697662,0.0494341142475605,-0.05521214380860329,-0.07586254924535751,0.025930387899279594,0.004064222797751427,0.01415520440787077,0.011268801055848598,0.11063641309738159,0.07197605818510056,-0.06279736757278442,0.05222700163722038,-0.05702022835612297,0.022825201973319054,0.02442532405257225,-0.06623359769582748,-0.05664200708270073,-0.08452285081148148,-0.048413317650556564,-0.002014984842389822,-0.1249329224228859,-0.05492138862609863,0.048914168030023575,0.04430752620100975,-0.007445561699569225,-0.08605331927537918,0.0732417106628418,-0.031010067090392113,-0.0859789252281189,-0.03093406930565834,-0.026768729090690613,-0.06063602492213249,-0.027379797771573067,-0.0041043865494430065,0.02256694622337818,0.09330876171588898,0.027121208608150482,0.05222881957888603,-0.009498007595539093,0.0313989520072937,0.04435443505644798,-0.0637894943356514,-0.016625454649329185
dataset_test/dataset_test/coastal/coastal_340.jpg,-0.017417792230844498,0.015014315955340862,0.030346473678946495,-0.014360520988702774,-0.0033531992230564356,-0.013839450664818287,0.009917067363858223,-0.026372773572802544,-0.12229262292385101,0.00591381685808301,-0.056070052087306976,-0.07459142804145813,0.00981229729950428,-0.017691466957330704,-0.059983231127262115,-0.0023980922996997833,0.07727140188217163,0.01727583445608616,-0.009896630421280861,-0.016184551641345024,-0.0051995208486914635,-0.011060423217713833,0.003892407985404134,0.0031988644041121006,-0.0007306448533199728,0.10082275420427322,-0.04892054945230484,-0.013777881860733032,0.016335172578692436,-0.02956763282418251,0.006077191326767206,0.0012725235428661108,0.017250968143343925,-0.04531187564134598,0.03573638200759888,-0.01525819394737482,0.04018379747867584,0.042987924069166183,0.01671859622001648,-0.025679467245936394,-0.07223974168300629,-0.028933191671967506,-0.02310241013765335,0.03320226073265076,-0.03421033173799515,-0.018710654228925705,0.08165191113948822,-0.0885915532708168,-0.010692581534385681,-0.01858055405318737,0.03821698948740959,0.039576455950737,-0.09831493347883224,-0.00967042613774538,0.05906873196363449,-0.008766751736402512,-0.030593011528253555,-0.05706005170941353,0.09567465633153915,-0.052380990236997604,-0.04174445569515228,0.0032340355683118105,-0.031385619193315506,0.00013375635899137706,-0.0512814037501812,0.08844395726919174,-0.1036815345287323,0.05806884914636612,-0.012569593265652657,-0.034653618931770325,0.013750414364039898,-0.011573497205972672,-0.023985987529158592,0.03148552030324936,0.020824316889047623,0.05014266446232796,0.0740332379937172,-0.10661114007234573,-0.10487214475870132,-0.09470680356025696,-0.0665513426065445,-0.015889568254351616,0.01194019801914692,0.05067607760429382,-0.041117094457149506,0.01116269826889038,-0.03705296665430069,-0.01659332402050495,0.003081902163103223,-0.03396995738148689,0.08965621888637543,-0.02145848423242569,0.009931337088346481,-0.04360874742269516,0.023407043889164925,0.0359036885201931,0.00142763857729733,-0.03494635224342346,0.05430550500750542,0.04943932220339775,0.028687546029686928,-0.0025726964231580496,0.1413666307926178,0.023999158293008804,-0.0773535966873169,-0.035408638417720795,-0.04286946728825569,0.05776393786072731,0.021461009979248047,-0.019818317145109177,-0.012364150956273079,-0.057024963200092316,-0.09592854976654053,-0.06491351872682571,0.002119779586791992,-0.08573095500469208,-0.028175193816423416,-0.05133376270532608,-0.027758391574025154,-0.007090606726706028,0.07767672091722488,-0.0014070094330236316,-0.004520311485975981,-0.05229181796312332,-0.06977546960115433,0.02507605589926243,0.019246475771069527,3.943590325124858e-33,0.06134345009922981,0.015500767156481743,-0.037987660616636276,-0.0059277089312672615,0.07301090657711029,0.024756014347076416,0.06151394546031952,0.03230345621705055,0.010690703056752682,0.057270489633083344,0.12785939872264862,0.06855261325836182,-0.13234968483448029,0.030184313654899597,0.039457667618989944,0.06293463706970215,-0.012762054800987244,-0.02922404184937477,0.01412767730653286,-0.008809588849544525,-0.06751973927021027,0.015171416103839874,0.02523074857890606,0.0799022689461708,0.05169020965695381,0.0053444211371243,0.001909385435283184,0.05538840964436531,-0.03669080138206482,-0.005905650556087494,0.014994606375694275,0.03302807733416557,0.05345626920461655,-0.01565203256905079,-0.08138550817966461,-0.025966178625822067,-0.045733023434877396,-0.06645458936691284,0.06105409562587738,-0.034981969743967056,-0.009059306234121323,0.05366296321153641,0.00973437074571848,0.09729232639074326,0.021252159029245377,0.007047662045806646,0.044718023389577866,0.1093239113688469,0.03073672205209732,0.060415320098400116,-0.03570376709103584,0.01987275667488575,-0.035158056765794754,0.0037093807477504015,-0.0370461605489254,-0.02753087878227234,-0.0004806904762517661,0.014202223159372807,0.04100637882947922,0.010745911858975887,0.037294577807188034,0.08658362925052643,0.03242120146751404,0.007349841296672821,0.013251145370304585,0.028609801083803177,-0.032219741493463516,0.04598984122276306,0.01201119739562273,-0.02749350294470787,-0.0673651397228241,0.005456901621073484,0.024567821994423866,-0.015022899955511093,0.010177470743656158,0.057215649634599686,-0.008051806129515171,-0.0751052275300026,-0.05992503836750984,-0.0415104441344738,-0.05587698146700859,-0.014673219062387943,-0.04083910211920738,0.05530300736427307,-0.03718487173318863,0.043927017599344254,0.06311919540166855,-0.06693151593208313,0.00589709123596549,-0.07754195481538773,-0.02692032791674137,-0.04121043533086777,-0.0576503649353981,-0.037619031965732574,-0.12551848590373993,-5.2109693959310776e-33,0.014761053025722504,-0.02246333844959736,-0.030430451035499573,0.1142590120434761,0.09217046946287155,-0.014244831167161465,-0.07123702019453049,-0.033291157335042953,0.017448613420128822,0.03428000584244728,0.07220219075679779,0.056436553597450256,-0.0019718497060239315,-0.00018911641382146627,-0.06645112484693527,0.04861721023917198,0.07319656759500504,0.04233238473534584,0.02460256963968277,-0.03201639652252197,-0.0017948580207303166,0.11439298838376999,-0.015813538804650307,-0.006236942019313574,-0.059021200984716415,0.02407039888203144,-0.09674488008022308,-0.141622394323349,-0.013308021239936352,0.03751327469944954,-0.022715860977768898,0.02252708002924919,0.12166012823581696,-0.0013613306218758225,-0.06315435469150543,-0.06271924823522568,0.09134945273399353,-0.04940007999539375,-0.03734881803393364,0.024601144716143608,0.07344537228345871,-0.01467502024024725,0.07311306148767471,0.0935543030500412,-0.08720165491104126,-0.07062479108572006,-0.10434471815824509,0.03350622206926346,0.07119181752204895,0.007366671226918697,0.0204264298081398,-0.010430245660245419,0.033073265105485916,-0.029591483995318413,-0.005331250838935375,0.01398041844367981,0.0544331893324852,0.03215857967734337,0.07701395452022552,0.0911984071135521,0.004258113447576761,0.08383522182703018,-0.044954996556043625,0.04497768357396126,0.06054092198610306,-0.013830876909196377,0.0287257581949234,-0.047886963933706284,-0.062117721885442734,-0.02751323953270912,0.029554016888141632,0.0016908518737182021,0.04411930590867996,0.004864463582634926,0.06263246387243271,0.019394535571336746,0.03166626766324043,0.018350224941968918,0.03320036455988884,0.0741894319653511,0.002449784427881241,0.009760021232068539,0.07413184642791748,0.032555364072322845,0.007161138579249382,-0.04183918237686157,-0.09181398898363113,0.003508079331368208,-0.004778427537530661,-0.05801202729344368,-0.04990221560001373,0.019767893478274345,0.04437767714262009,0.04953978210687637,0.011774720624089241,-2.3340165355989484e-08,0.0012950273230671883,0.03873717039823532,-0.014475557021796703,-0.02095848321914673,-0.02026926353573799,-0.10065559297800064,0.06982055306434631,0.07470071315765381,-0.027995727956295013,-0.0228678360581398,0.015029236674308777,-0.008794066496193409,-0.06533157825469971,-0.020197052508592606,0.054878126829862595,-0.02419067919254303,0.024788551032543182,-0.017502782866358757,-0.0195651575922966,-0.07064468413591385,0.08340553194284439,-0.028386056423187256,0.09184491634368896,-0.02642766758799553,-0.08198264986276627,-0.014086171053349972,0.0327775776386261,-0.008047477342188358,0.008950745686888695,0.12706248462200165,0.0286709014326334,-0.03077739104628563,0.06613386422395706,-0.06762422621250153,0.015878502279520035,-0.006218370981514454,-0.12063360959291458,-0.04186313971877098,-0.07448720186948776,-0.029901664704084396,-0.061089761555194855,-0.13408103585243225,-0.11570850759744644,0.02068675123155117,0.021837985143065453,-0.014924486167728901,-0.10033264011144638,0.08908169716596603,-0.013981749303638935,-0.056196704506874084,-0.054918453097343445,0.0026378442998975515,0.017429424449801445,-0.06829037517309189,0.018537670373916626,-0.008229906670749187,0.071238212287426,0.04785480350255966,0.04318724200129509,-0.05776873975992203,0.05138551443815231,-0.01698889769613743,-0.05340854078531265,-0.01248273067176342
dataset_test/dataset_test/coastal/coastal_552.jpg,0.0764840766787529,-0.042351603507995605,0.00148178287781775,0.015637539327144623,-0.050032489001750946,-0.03534426540136337,-0.010170381516218185,-0.03395117446780205,-0.05100098252296448,0.05947454273700714,-0.004822862800210714,-0.07238519191741943,-0.017421172931790352,0.045559272170066833,0.018412280827760696,-0.03416312113404274,0.07528132945299149,0.03437023609876633,0.008689738810062408,0.03008359856903553,0.015495892614126205,0.03171222284436226,-0.009389052167534828,-0.0033724121749401093,-0.019648825749754906,0.03410940244793892,-0.009435169398784637,0.008244040422141552,0.036126233637332916,-0.050817929208278656,0.05305328592658043,0.017460959032177925,-0.009647726081311703,0.013372973538935184,0.004666049033403397,0.010453639551997185,0.0006466558552347124,0.011765245348215103,0.02692318707704544,0.013581485487520695,-0.09311634302139282,-0.05404839292168617,0.03246370330452919,0.052839841693639755,-0.01092849113047123,-0.08526182174682617,0.0263812392950058,-0.05192521587014198,-0.045956969261169434,-0.12551769614219666,0.03945761173963547,0.004227017052471638,-0.09536764025688171,0.038221247494220734,0.02635269984602928,0.013561481609940529,-0.001856861519627273,-0.051490068435668945,0.10311602056026459,-0.060382064431905746,0.00800715759396553,0.033524468541145325,-0.01214888971298933,-0.02383619360625744,-0.07877351343631744,0.10841682553291321,-0.1119457557797432,0.016150545328855515,-0.030588161200284958,-0.060235727578401566,0.034227244555950165,-0.04023712873458862,0.017578737810254097,0.006489783991128206,0.007015956100076437,-0.007326869759708643,0.04537900164723396,-0.08151179552078247,-0.050449106842279434,-0.03844451531767845,-0.059518150985240936,0.043104883283376694,-0.021435163915157318,0.05341161787509918,-0.01570063643157482,-0.008193479850888252,-0.030960507690906525,0.03958877921104431,-0.06345546245574951,-0.04801027104258537,0.035719338804483414,0.008941860869526863,-0.008562781848013401,-0.04116571694612503,-0.060727253556251526,0.05809371545910835,-0.05281051620841026,-0.0307124275714159,0.02125280164182186,0.01581026054918766,0.031892601400613785,-0.013743435963988304,0.1324608325958252,0.03175804018974304,-0.10692351311445236,-0.047555942088365555,0.012600308284163475,0.08800707012414932,0.03288862481713295,-0.04970398545265198,-0.03599280118942261,-0.019751882180571556,-0.16746526956558228,-0.03669849783182144,-0.03377269580960274,-0.10255248844623566,0.061946626752614975,-0.0055606369860470295,0.02115231193602085,-0.0032500664237886667,0.06744030863046646,-0.013142877258360386,0.007795331999659538,-0.040811460465192795,-0.01975092664361,0.02481527253985405,0.0729803666472435,9.323888029252955e-34,0.03846074268221855,0.01200265996158123,-0.008584492839872837,-0.006493771448731422,0.11549842357635498,-0.058812472969293594,0.0387348011136055,-0.022918466478586197,0.008191069588065147,0.09302936494350433,0.1014600470662117,0.04591197147965431,-0.07364650070667267,0.06868012249469757,0.08250386267900467,0.021356098353862762,0.026708044111728668,-0.020433833822607994,0.0033424273133277893,-0.006612054537981749,-0.08175285905599594,0.08794054388999939,0.07612187415361404,0.04262033477425575,0.05699898675084114,-0.017758961766958237,-0.008460644632577896,-0.00918543990701437,-0.1027841791510582,0.00190300855319947,0.010226504877209663,0.06481070816516876,0.056355755776166916,0.05017143115401268,-0.07912503182888031,-0.0028741303831338882,-0.044597841799259186,-0.05994902178645134,0.0879155844449997,-0.06967029720544815,-0.05708633363246918,0.08942271769046783,0.03746610879898071,0.08846518397331238,0.042183686047792435,0.05778142809867859,0.03326023370027542,0.07273967564105988,0.02707398310303688,0.07588125020265579,-0.008666629903018475,0.015333104878664017,-0.027006229385733604,0.03076113946735859,0.002345752902328968,-0.026320472359657288,-0.026555556803941727,0.028405480086803436,0.06850393116474152,-0.009979577735066414,0.04951048269867897,0.055964864790439606,0.004537280183285475,-0.018321823328733444,0.00966416485607624,-0.015180140733718872,-0.029102638363838196,0.04079052433371544,-0.0072706760838627815,-0.07391057163476944,-0.06261313706636429,-0.04179355502128601,0.04577524960041046,0.01700020395219326,0.058248370885849,0.013233537785708904,-0.024870265275239944,-0.05379878357052803,-0.023480240255594254,0.01407598052173853,-0.04302727431058884,0.006880050525069237,-0.07993122935295105,0.0023259317968040705,0.008059412240982056,0.06048531085252762,0.045239344239234924,-0.0075520798563957214,-0.04376841336488724,-0.09095067530870438,-0.009197377599775791,0.01083509810268879,-0.026745809242129326,0.02010904997587204,-0.10444731265306473,-3.117275836530362e-33,0.030868304893374443,-0.06266529858112335,-0.08378429710865021,0.06330235302448273,0.09572691470384598,-0.029148204252123833,-0.11116382479667664,-0.09840229898691177,-0.025287717580795288,-0.0011248837690800428,0.04611402004957199,0.031215881928801537,-0.0007519079372286797,-0.04839528724551201,-0.053163349628448486,-0.008961662650108337,0.05942005291581154,0.03332238271832466,0.004699991084635258,-0.0108461519703269,0.06280580908060074,0.034655049443244934,-0.08868533372879028,-0.050079409033060074,-0.04277933016419411,0.016625940799713135,-0.03706681728363037,-0.05886407196521759,-0.01932089775800705,0.04021768644452095,-0.02961432747542858,0.012437169440090656,0.1063162088394165,-0.021833157166838646,-0.04579717293381691,-0.10565375536680222,0.08806808292865753,-0.05691017583012581,-0.040523599833250046,0.005604056175798178,0.0518655963242054,-0.011745549738407135,0.07547568529844284,0.0881277471780777,-0.08500278741121292,-0.04565206542611122,-0.08498536795377731,-0.002876706887036562,0.016610631719231606,-0.04895525425672531,0.034655436873435974,0.03906470537185669,-0.002493529347702861,0.011195595376193523,0.008036595769226551,0.01341395266354084,0.01956910640001297,0.08204961568117142,0.08641763031482697,0.09678607434034348,-0.010312373749911785,0.06534434854984283,-0.03510453552007675,0.04060490056872368,0.07865185290575027,-0.0006384109146893024,0.00892573967576027,-0.08896927535533905,-0.02250131405889988,-0.02383698709309101,0.04870187118649483,-0.014257501810789108,-0.0015980825992301106,0.019892986863851547,0.03231542557477951,-0.010095203295350075,0.042692847549915314,-0.042385149747133255,0.03661033883690834,0.046171847730875015,0.017953960224986076,-0.031777892261743546,0.02560141682624817,0.011675577610731125,0.00892342533916235,-0.060972582548856735,-0.030713582411408424,-0.05241807922720909,-0.02204376645386219,-0.04488552734255791,0.009699656628072262,0.03944983705878258,0.03204130381345749,-0.00903644785284996,0.0013177050277590752,-2.629013273747205e-08,-0.02901945449411869,0.025529325008392334,-0.02668663114309311,-0.08779540657997131,-0.05821659415960312,-0.08888740092515945,0.1290801614522934,0.07635582238435745,-0.01799180544912815,-0.03617517650127411,0.09049784392118454,-0.010579937137663364,-0.027563808485865593,0.0008122730650939047,0.06344279646873474,0.0030230137053877115,0.009195965714752674,0.008714254014194012,0.009237700141966343,-0.03175640106201172,0.046402670443058014,-0.06321515887975693,0.08864542096853256,-0.043591126799583435,-0.056786395609378815,-0.022224674001336098,0.029884062707424164,0.0381116084754467,0.023141028359532356,0.11185111850500107,0.05339045077562332,-0.00895819254219532,0.06347723305225372,-0.03657269850373268,0.011028394103050232,0.015156043693423271,-0.1293991208076477,-0.0888010635972023,-0.05969218164682388,-0.03381519392132759,-0.08337065577507019,-0.12640099227428436,-0.08854654431343079,0.005685313604772091,0.054217997938394547,-0.010949144139885902,-0.06685497611761093,0.10377354174852371,-0.040869295597076416,-0.02804708108305931,-0.0108791533857584,0.005648897495120764,-0.002667277352884412,-0.06739658862352371,-0.009523426182568073,-0.01117921993136406,0.0866587907075882,0.03226828947663307,0.041144344955682755,-0.012321014888584614,0.03664829209446907,-0.029224824160337448,-0.06987481564283371,0.008538393303751945
